
\data\
ngram 1=21163
ngram 2=119207

\1-grams:
-1.613265	</s>
-99	<s>	-0.3445102
-1.764915	<unk>	-0.05348092
-2.415181	一	-0.4495472
-5.440924	一上
-3.839034	一下	-0.5469003
-5.171073	一下子	-0.2121715
-5.171073	一了	-0.2021571
-5.440924	一事
-3.430202	一些	-0.2397953
-5.440924	一人
-5.440924	一代
-5.440924	一任
-5.440924	一份
-5.440924	一併
-4.972836	一來	-0.1879882
-5.440924	一來一往
-5.440924	一例
-3.083885	一個	-0.2659141
-5.440924	一共
-5.440924	一兵一卒
-5.440924	一刀
-5.440924	一刀兩斷
-5.440924	一分
-5.440924	一分子
-5.440924	一分耕耘一分收穫
-5.440924	一切
-5.440924	一副
-5.440924	一勞永逸
-4.445974	一半	-0.4260536
-5.440924	一口
-4.720465	一口氣	-0.3378683
-5.440924	一同
-5.440924	一名
-4.214827	一向	-0.2413071
-5.440924	一呼百應
-5.440924	一哄而散
-5.440924	一回
-5.440924	一回事
-5.440924	一國兩制
-5.440924	一團
-5.440924	一地
-5.171073	一堆	-0.1999664
-5.440924	一塊
-5.440924	一塊兒
-5.440924	一夕
-5.440924	一夥
-5.440924	一大半
-5.440924	一大早
-3.791442	一天	-0.338828
-4.024416	一套	-0.2369708
-5.440924	一如
-3.791442	一定	-0.3723416
-5.440924	一家
-5.440924	一家人
-5.440924	一對
-5.440924	一屁股
-5.440924	一展身手
-5.440924	一己
-5.440924	一帆風順
-5.440924	一席之地
-4.354573	一帶	-0.1842662
-5.440924	一幕
-5.440924	一幫
-5.440924	一干
-5.440924	一年半載
-5.440924	一度
-5.440924	一廂情願
-5.171073	一律	-0.4655583
-5.440924	一心
-5.440924	一心一意
-5.440924	一成
-5.440924	一成不變
-5.440924	一手
-5.440924	一手包辦
-5.440924	一手遮天
-5.440924	一批
-4.561885	一把	-0.1949247
-5.440924	一把手
-5.440924	一抹
-5.440924	一整天
-5.440924	一方
-4.445974	一方面	-0.1965571
-5.440924	一旁
-5.440924	一日
-3.921908	一旦	-0.2038209
-3.709524	一時	-0.3869844
-5.440924	一時之間
-5.440924	一時間
-5.440924	一曝十寒
-5.440924	一曲
-5.28259	一會兒	-0.2001535
-5.440924	一本
-5.440924	一枝獨秀
-5.440924	一條心
-5.440924	一概
-5.28259	一模一樣	-0.1899603
-4.024416	一步	-0.4604192
-5.440924	一步步
-3.987492	一段	-0.225016
-5.440924	一毛
-5.440924	一氣之下
-5.440924	一氣呵成
-5.440924	一波
-5.440924	一波三折
-5.440924	一派
-5.440924	一流
-5.440924	一清二楚
-3.892491	一片	-0.2262063
-5.440924	一班
-5.440924	一生
-5.440924	一番
-5.440924	一發
-5.440924	一發不可收拾
-5.440924	一百一
-5.440924	一百分
-5.28259	一目了然	-0.1899603
-5.440924	一目十行
-5.440924	一目瞭然
-3.504954	一直	-0.3135716
-5.28259	一瞬間	-0.1899603
-5.440924	一票難求
-5.440924	一竿子
-5.440924	一筆
-5.440924	一節
-5.440924	一籌莫展
-5.440924	一系列
-5.440924	一絕
-5.440924	一線
-5.440924	一線天
-5.440924	一線曙光
-5.440924	一線生機
-4.214827	一群	-0.1841729
-5.440924	一聲
-5.440924	一聲令下
-5.440924	一股
-5.440924	一脈
-5.440924	一脈相承
-5.440924	一腳
-5.440924	一臂之力
-3.748554	一致	-0.478904
-5.440924	一致性
-5.440924	一舉
-5.440924	一舉兩得
-5.440924	一舉成擒
-3.460678	一般	-0.3590521
-5.440924	一般性
-5.440924	一般而言
-5.440924	一落千丈
-5.440924	一著
-5.440924	一處
-4.720465	一號	-0.2053673
-4.445974	一行	-0.195895
-5.440924	一行人
-5.440924	一表人才
-5.440924	一視同仁
-5.440924	一覽無遺
-5.440924	一角
-5.440924	一觸即發
-5.440924	一試
-5.440924	一說
-5.440924	一貫
-5.440924	一貫作業
-3.921908	一起	-0.2247538
-5.440924	一趟
-5.440924	一跤
-3.953463	一路	-0.1783518
-5.440924	一路領先
-5.440924	一蹶不振
-5.440924	一身
-5.440924	一較長短
-5.440924	一輩
-5.28259	一輩子	-0.2021571
-5.440924	一逕
-5.440924	一連
-4.109268	一連串	-0.348731
-5.440924	一道
-4.972836	一邊	-0.3043244
-5.440924	一部
-5.440924	一部分
-5.440924	一門
-5.440924	一間
-4.024416	一陣	-0.2054444
-4.561885	一陣子	-0.3340724
-5.440924	一雙
-4.354573	一面	-0.3175485
-5.440924	一頓
-5.440924	一頭
-5.440924	一頭霧水
-5.440924	一體
-5.440924	一鳴驚人
-3.839034	一點	-0.4936115
-5.171073	一點點	-0.1941992
-5.440924	一齊
-4.354573	丁	-0.2226732
-3.14551	七	-0.5665905
-5.440924	七七
-5.440924	七八
-5.440924	七十二變
-5.440924	七月
-5.440924	七發
-5.440924	丈夫
-5.440924	丈母娘
-2.813213	三	-0.47803
-5.440924	三七
-5.171073	三二	-0.2126274
-5.440924	三五
-5.440924	三代
-5.440924	三元
-5.440924	三八
-5.440924	三公
-5.440924	三六
-5.440924	三分
-5.440924	三到
-5.440924	三原色
-5.440924	三國
-5.440924	三場
-5.440924	三字經
-5.440924	三季
-5.440924	三學
-5.440924	三家
-5.440924	三峽
-5.440924	三年有成
-5.440924	三度空間
-5.440924	三從四德
-5.440924	三思而行
-5.440924	三振
-5.440924	三星
-5.440924	三時
-5.440924	三民主義
-5.440924	三溫暖
-5.440924	三端
-5.28259	三等	-0.2053418
-5.440924	三節
-5.440924	三節棍
-5.440924	三級片
-5.440924	三緘其口
-5.440924	三芝
-5.440924	三角貿易
-5.440924	三讀
-5.440924	三軍
-5.440924	三重
-5.440924	三餐
-2.415181	上	-0.4703563
-5.171073	上上	-0.1988008
-4.109268	上下	-0.1870439
-5.440924	上下其手
-5.440924	上任
-4.720465	上來	-0.1866799
-5.440924	上前
-5.440924	上升
-4.024416	上午	-0.4291307
-5.440924	上半
-4.445974	上去	-0.614556
-5.440924	上司
-5.440924	上回
-5.440924	上場
-5.440924	上學
-5.440924	上山
-5.440924	上岸
-5.440924	上工
-5.440924	上市
-5.440924	上帝
-5.440924	上床
-5.440924	上揚
-5.440924	上方
-5.440924	上日
-5.440924	上旬
-5.440924	上映
-5.440924	上書
-5.440924	上會
-5.440924	上檔
-5.440924	上次
-5.440924	上游
-5.440924	上演
-5.440924	上漲
-3.814587	上班	-0.5223765
-5.440924	上班族
-5.440924	上畫
-5.440924	上當
-5.440924	上癮
-5.440924	上真
-5.440924	上空
-5.440924	上等
-5.440924	上級
-5.171073	上網	-0.1894511
-5.440924	上線
-5.440924	上臂
-5.440924	上蓋
-5.440924	上街
-5.440924	上衣
-5.440924	上訴
-4.279103	上課	-0.3214637
-4.972836	上路	-0.2004923
-5.440924	上身
-5.440924	上軌道
-5.440924	上述
-5.440924	上進
-5.440924	上達
-5.440924	上都
-5.440924	上鎖
-5.440924	上門
-4.972836	上限	-0.189409
-5.440924	上陣
-4.158848	上面	-0.2724148
-5.440924	上風
-5.440924	上香
-2.560072	下	-0.5626971
-5.440924	下不為例
-5.440924	下令
-3.728601	下來	-0.8110578
-5.440924	下列
-5.28259	下功夫	-0.1899603
-4.024416	下午	-0.3825027
-5.440924	下半年
-3.921908	下去	-0.7566881
-5.440924	下回
-5.440924	下坡
-5.440924	下堂
-5.440924	下堂妻
-5.440924	下場
-5.440924	下嫁
-5.440924	下學
-5.440924	下定
-5.440924	下山
-5.28259	下工夫	-0.2127404
-5.440924	下巴
-5.440924	下心
-5.440924	下手
-5.440924	下才
-5.440924	下挫
-5.440924	下文
-5.440924	下方
-5.440924	下旬
-5.440924	下檔
-5.440924	下次
-5.440924	下毒
-5.440924	下注
-5.440924	下海
-5.440924	下游
-5.440924	下滑
-5.440924	下班
-5.440924	下的
-5.440924	下第
-5.440924	下落
-5.171073	下課	-0.1988374
-5.440924	下跌
-5.440924	下跪
-5.440924	下車
-5.440924	下達
-5.440924	下部
-5.440924	下都
-5.440924	下鄉
-5.440924	下降
-5.440924	下雨
-5.171073	下面	-0.1998092
-5.440924	下體
-2.26121	不	-0.5167344
-5.440924	不久
-5.440924	不乏
-5.440924	不乏其人
-5.440924	不乾淨
-5.440924	不了
-5.440924	不了了之
-5.440924	不了解
-5.440924	不但
-4.064773	不佳	-0.7705873
-5.440924	不來
-5.440924	不便
-5.440924	不便宜
-5.440924	不倫不類
-4.972836	不停	-0.1975067
-5.440924	不備
-5.440924	不僅
-5.28259	不光	-0.2005217
-5.440924	不克
-5.440924	不免
-5.440924	不全
-5.440924	不公
-5.440924	不具
-5.440924	不分
-5.440924	不切實際
-5.440924	不利
-3.709524	不到	-0.2103466
-5.440924	不到的
-5.440924	不到頭
-5.440924	不力
-5.440924	不動產
-5.440924	不去
-5.440924	不及
-3.5414	不可	-0.2482654
-5.440924	不可不
-4.354573	不可以	-0.1923313
-5.440924	不可同日而語
-5.440924	不可思議
-4.972836	不可或缺	-0.3959847
-5.440924	不可收拾
-5.440924	不可知
-5.440924	不可磨滅
-3.839034	不可能	-0.226329
-5.440924	不可開交
-5.440924	不合
-5.440924	不合作
-5.440924	不合時宜
-5.440924	不合格
-5.440924	不合邏輯
-3.440125	不同	-0.5592789
-5.440924	不同意
-5.440924	不名譽
-5.440924	不吝
-5.440924	不含糊
-5.440924	不吭氣
-5.440924	不告而別
-5.440924	不和
-5.440924	不均
-5.440924	不堪
-5.440924	不堪其擾
-5.440924	不堪設想
-5.440924	不堪負荷
-5.440924	不多
-5.440924	不多時
-3.728601	不夠	-0.3156973
-5.440924	不大
-3.864941	不好	-0.3909053
-5.440924	不好意思
-5.440924	不好看
-5.440924	不妙
-5.440924	不妥
-4.445974	不妨	-0.1868838
-5.440924	不定
-5.440924	不客氣
-5.440924	不將
-5.440924	不對
-5.440924	不對勁
-5.440924	不就
-5.440924	不平
-5.440924	不平之鳴
-5.440924	不平等
-5.440924	不平等條約
-5.440924	不幹
-5.440924	不強
-3.430202	不得	-0.3631549
-5.440924	不得不
-5.28259	不得了	-0.1899603
-5.440924	不得其門而入
-5.440924	不得已
-5.440924	不得而知
-5.440924	不得要領
-5.440924	不復
-3.640632	不必	-0.3055197
-5.440924	不惜
-5.440924	不懂
-5.440924	不拘小節
-5.440924	不提
-5.440924	不搭調
-5.440924	不擬
-5.440924	不改
-5.440924	不攻自破
-5.440924	不放心
-5.440924	不敢
-5.440924	不敵
-5.440924	不敷
-5.440924	不料
-3.595304	不斷	-0.3608771
-5.440924	不斷電系統
-5.440924	不方便
-5.440924	不明
-5.440924	不明不白
-5.440924	不明就裡
-5.440924	不景氣
-3.33382	不會	-0.2877668
-5.440924	不服
-5.440924	不服輸
-5.440924	不期
-5.440924	不樂觀
-5.440924	不歡而散
-5.440924	不歸路
-5.440924	不比
-5.440924	不毛之地
-5.440924	不決
-5.440924	不法
-5.440924	不法行為
-5.440924	不淺
-5.440924	不清
-5.440924	不減
-5.440924	不滿
-5.440924	不濟
-5.440924	不獨
-5.440924	不獲
-5.440924	不理
-5.440924	不理會
-5.440924	不甘
-5.440924	不甘寂寞
-5.440924	不甘心
-5.440924	不甘示弱
-5.440924	不當
-5.440924	不疾不徐
-5.440924	不盡
-5.28259	不盡然	-0.1991748
-5.440924	不眠不休
-5.440924	不睦
-5.440924	不確定故意
-5.440924	不禁
-5.440924	不稀奇
-5.440924	不究
-5.440924	不競
-5.440924	不符
-5.440924	不等
-4.214827	不管	-0.2079303
-5.440924	不結盟
-5.440924	不絕
-5.440924	不給
-5.440924	不經心
-5.440924	不經意
-5.440924	不耐
-5.440924	不肯
-3.33382	不能	-0.244438
-5.171073	不能不	-0.2000613
-5.440924	不脛而走
-5.440924	不良
-5.440924	不良分子
-5.440924	不良少年
-5.440924	不落人後
-5.440924	不表
-5.440924	不見
-4.354573	不見得	-0.2367756
-5.440924	不規則
-5.440924	不覺
-5.440924	不解
-5.171073	不計	-0.2117141
-5.440924	不該
-4.214827	不論	-0.312074
-5.440924	不諱
-5.440924	不諱言
-4.561885	不變	-0.5699548
-5.440924	不負
-5.440924	不負眾望
-5.440924	不費吹灰之力
-5.440924	不賴
-5.440924	不起
-5.440924	不起眼
-5.440924	不起訴處分
-5.440924	不軌
-5.440924	不通
-3.892491	不過	-0.3226126
-5.440924	不過是
-5.440924	不道德
-5.440924	不還
-5.440924	不開
-5.440924	不關
-5.440924	不關心
-5.440924	不防
-5.440924	不離
-4.561885	不難	-0.2239697
-5.440924	不靈
-5.440924	不領情
-5.440924	不顧
-5.440924	不顧一切
-5.171073	丑	-0.1899219
-3.5414	且	-0.2373952
-5.440924	且是
-5.440924	丕變
-3.5414	世	-0.2608464
-5.440924	世上
-5.440924	世事
-5.171073	世代	-0.1989361
-5.440924	世俗
-5.440924	世外桃源
-5.440924	世居
-3.504954	世界	-0.3452795
-5.440924	世界大戰
-5.440924	世界展望會
-5.440924	世界觀
-5.440924	世紀
-5.440924	世紀末
-5.440924	世貿中心
-5.440924	世風日下
-4.972836	丘	-0.3289924
-4.279103	丙	-0.3814586
-3.864941	丟	-0.2983806
-5.440924	丟下
-5.28259	丟掉	-0.2021571
-5.440924	丟棄
-2.766099	並	-0.496582
-4.109268	並不是	-0.2891741
-5.440924	並且
-5.440924	並列
-5.440924	並存
-5.440924	並未
-5.440924	並無不當
-5.440924	並稱
-5.440924	並肩
-5.440924	並肩作戰
-5.440924	並起
-5.440924	並重
-5.440924	並非
-2.398449	中	-0.4915219
-5.440924	中人
-5.440924	中介
-5.440924	中信局
-5.440924	中傷
-5.440924	中共
-5.440924	中區
-4.445974	中午	-0.1880305
-5.440924	中古
-5.440924	中和
-3.624991	中國	-0.273601
-5.440924	中國大陸
-5.440924	中國畫
-5.440924	中國銀行
-5.440924	中地
-5.440924	中堅
-5.440924	中場
-5.440924	中大
-3.504954	中央	-0.2457868
-5.440924	中央委員會
-5.440924	中央山脈
-5.440924	中央政府
-5.440924	中央氣象局
-5.440924	中央銀行
-5.440924	中央黨部
-5.440924	中學
-5.440924	中將
-5.440924	中小企業
-5.440924	中山
-5.440924	中常
-5.440924	中常委
-5.440924	中常會
-5.440924	中年
-5.440924	中庭
-5.440924	中彈
-3.581188	中心	-0.4979842
-5.440924	中心思想
-5.28259	中性	-0.2002738
-5.440924	中意
-5.440924	中才
-5.440924	中指
-4.064773	中文	-0.3009875
-5.440924	中斷
-5.440924	中旬
-4.720465	中期	-0.2415443
-3.504954	中東	-0.5880348
-5.440924	中樞
-5.440924	中止
-5.440924	中正
-5.440924	中正大學
-5.440924	中正紀念堂
-5.440924	中毒
-5.440924	中氣
-5.440924	中油
-5.440924	中焦
-5.440924	中獎
-5.440924	中用
-5.440924	中的
-5.440924	中盤
-5.440924	中盤商
-5.440924	中看
-5.440924	中秋
-5.440924	中秋節
-4.972836	中立	-0.2988819
-5.440924	中等
-5.440924	中篇小說
-5.440924	中級
-5.440924	中線
-5.440924	中美
-5.440924	中興
-5.440924	中興大學
-5.440924	中船
-3.791442	中華	-0.5245861
-5.440924	中華民國
-5.440924	中葉
-5.440924	中衛
-5.440924	中西
-4.445974	中視	-0.1945775
-5.440924	中誠
-5.440924	中途
-5.440924	中道
-5.440924	中選會
-5.440924	中部
-5.440924	中醫
-5.440924	中鋒
-4.158848	中間	-0.3263012
-5.440924	中間商
-5.440924	中隊
-5.440924	中飯
-5.440924	中飽私囊
-4.720465	串	-0.2359807
-5.440924	串演
-5.171073	串聯	-0.2611715
-5.171073	丸	-0.1992048
-4.561885	丹	-0.1930326
-5.440924	丹佛
-2.690215	主	-0.668779
-5.440924	主事
-5.440924	主人
-5.440924	主人公
-5.440924	主任
-5.440924	主任委員
-5.440924	主使
-5.440924	主修
-5.440924	主力
-5.440924	主動
-5.440924	主名
-5.440924	主因
-5.440924	主委
-5.440924	主婦
-5.440924	主嫌
-5.440924	主客
-5.440924	主宰
-5.440924	主將
-4.158848	主導	-0.1966856
-5.440924	主席
-5.440924	主席團
-5.440924	主幹
-5.440924	主張
-5.440924	主從架構
-5.440924	主意
-5.440924	主持
-5.440924	主持人
-5.440924	主控
-5.440924	主播
-5.440924	主攻
-5.440924	主政
-5.440924	主教
-5.440924	主文
-5.171073	主旨	-0.1982406
-5.440924	主機
-5.440924	主權
-4.064773	主流	-0.3898896
-5.440924	主演
-5.440924	主祭
-5.440924	主管
-5.440924	主管機關
-5.440924	主義
-3.748554	主要	-0.4101268
-5.440924	主觀
-4.279103	主角	-0.2674202
-5.440924	主計
-5.440924	主軸
-5.440924	主辦
-4.109268	主題	-0.5241581
-5.440924	主題曲
-5.440924	主食
-5.440924	主體
-3.769469	乃	-0.234003
-5.440924	乃是
-5.440924	乃父
-3.493454	久	-0.4398194
-5.440924	久久
-5.440924	久候
-5.440924	久旱不雨
-5.440924	久旱逢甘霖
-5.440924	久而久之
-2.438543	之	-0.2942505
-3.609894	之前	-0.6370225
-3.493454	之外	-0.9204527
-3.182712	之後	-0.8667973
-5.440924	之無
-5.440924	乍看
-4.354573	乎	-0.2946798
-3.953463	乏	-0.2856768
-5.440924	乏人
-5.440924	乏人問津
-5.440924	乏味
-5.440924	乖乖
-5.440924	乖離
-5.440924	乖離率
-4.024416	乘	-0.2037999
-5.440924	乘勝追擊
-5.440924	乘勢
-5.440924	乘坐
-4.445974	乘客	-0.1880053
-5.440924	乘機
-5.440924	乘車
-4.445974	乙	-0.236608
-5.440924	乙炔
-5.440924	乙烯
-3.254991	九	-0.4492512
-5.440924	九七大限
-5.440924	九九
-5.440924	九五
-5.440924	九分
-5.440924	九孔
-5.440924	九層塔
-5.440924	九成
-5.440924	九族
-5.440924	九日
-5.440924	九泉
-5.440924	九牛一毛
-5.440924	九牛二虎之力
-5.440924	九百
-5.440924	九芎
-5.440924	九鼎
-5.440924	九龍
-5.440924	乞丐
-2.538144	也	-0.4207443
-5.440924	也不見得
-5.440924	也可
-4.720465	也好	-0.3123285
-3.528908	也是	-0.2055489
-5.440924	也曾
-5.440924	也行
-4.561885	也許	-0.3220279
-5.440924	也須
-5.440924	乩童
-4.445974	乳	-0.3883212
-5.440924	乳牛
-5.440924	乳白
-5.440924	乳製品
-5.440924	乳豬
-4.158848	乾	-0.2625733
-5.440924	乾涸
-4.445974	乾淨	-0.4041682
-5.440924	乾燥
-5.440924	乾瞪眼
-4.354573	乾脆	-0.1833128
-5.440924	乾隆
-3.69125	亂	-0.4718946
-5.440924	亂來
-5.440924	亂叫
-5.440924	亂成一團
-5.440924	亂竄
-5.440924	亂罵
-2.475036	了	-0.4432327
-5.171073	了不起	-0.5207307
-5.440924	了事
-5.440924	了手
-5.440924	了收
-5.440924	了斷
-5.440924	了無
-5.440924	了無新意
-5.440924	了無生機
-5.440924	了結
-3.5414	了解	-0.3174073
-3.2683	予	-0.3990264
-5.440924	予以
-5.440924	予取予求
-2.89369	事	-0.4587086
-3.482252	事件	-0.4313825
-3.814587	事先	-0.2071561
-5.440924	事前
-5.440924	事務
-5.440924	事務所
-5.440924	事半功倍
-5.440924	事宜
-3.953463	事實	-0.3524461
-5.440924	事後
-5.440924	事必躬親
-4.214827	事情	-0.2265398
-5.440924	事態
-5.440924	事故
-3.728601	事業	-0.2444108
-5.440924	事權
-5.440924	事物
-5.440924	事端
-5.440924	事變
-5.440924	事蹟
-5.440924	事關重大
-5.440924	事項
-2.755597	二	-0.586068
-5.440924	二二八事件
-5.440924	二五八
-5.440924	二八
-5.440924	二分
-5.440924	二則
-4.354573	二十四	-0.232256
-5.28259	二四	-0.193145
-5.440924	二天
-5.440924	二手
-5.440924	二月二
-5.440924	二極體
-5.440924	二次大戰
-5.440924	二次方程式
-5.440924	二百二
-5.440924	二百五
-5.440924	二部制
-4.561885	于	-0.2041567
-5.440924	于右任
-3.728601	互	-0.315212
-5.440924	互信
-5.440924	互勉
-4.720465	互動	-0.1962598
-5.440924	互惠
-5.28259	互換	-0.2001972
-5.440924	互毆
-5.440924	互異
-4.158848	互相	-0.253786
-5.440924	互通
-3.070825	五	-0.474176
-5.440924	五七
-5.440924	五代
-5.440924	五官
-5.440924	五常
-5.440924	五彩
-5.440924	五折
-5.440924	五根
-3.839034	五百	-0.327556
-5.440924	五種
-5.440924	五股
-5.440924	五花八門
-5.440924	五花大綁
-5.440924	五輕
-5.440924	五院
-5.440924	五鬼
-3.921908	井	-0.2412863
-5.440924	井井有條
-5.440924	井然有序
-3.839034	些	-0.3156103
-5.440924	些小
-5.440924	些微
-3.440125	亞	-0.4107508
-5.440924	亞東
-5.440924	亞東關係協會
-5.440924	亞洲
-5.440924	亞洲四小龍
-5.440924	亞熱帶
-5.440924	亞運
-4.445974	亟	-0.264315
-5.440924	亟待
-5.440924	亟思
-5.440924	亟欲
-5.440924	亟需
-3.987492	亡	-0.3745914
-5.440924	亡命
-5.440924	亡羊補牢
-5.440924	亡魂
-2.96818	交	-0.5656043
-5.440924	交付
-5.440924	交代
-5.440924	交保
-5.440924	交出
-5.440924	交割
-5.28259	交叉	-0.2021571
-5.28259	交友	-0.2128351
-5.440924	交往
-5.440924	交情
-5.440924	交戰
-5.440924	交接
-4.158848	交換	-0.2659435
-5.440924	交易
-5.440924	交易所
-5.440924	交替
-5.440924	交會
-5.440924	交流
-5.440924	交流道
-5.440924	交流電
-5.440924	交涉
-5.440924	交界
-5.440924	交相
-4.279103	交給	-0.1984393
-5.440924	交織
-5.440924	交與
-5.440924	交融
-5.440924	交誼
-5.440924	交談
-5.440924	交貨
-3.358057	交通	-0.2669534
-5.440924	交通事故
-5.440924	交通大學
-5.440924	交通安全
-5.440924	交通工具
-5.440924	交通流量
-5.440924	交通號誌
-5.440924	交通部
-5.440924	交通量
-5.440924	交運
-5.440924	交還
-5.440924	交錯
-5.28259	交集	-0.1994234
-5.440924	交響樂團
-3.018373	亦	-0.3713617
-5.440924	亦然
-4.972836	亨	-0.375621
-3.791442	享	-0.3933261
-5.440924	享受
-5.440924	享有
-5.440924	享樂
-5.440924	享用
-5.440924	享福
-4.024416	京	-0.3080228
-5.440924	京兆
-5.440924	京劇
-5.440924	京城
-5.440924	京華
-5.440924	京都
-4.214827	亭	-0.1841091
-5.440924	亭亭玉立
-3.69125	亮	-0.2932611
-5.440924	亮光
-5.440924	亮光漆
-5.440924	亮度
-5.440924	亮相
-5.440924	亮票
-5.440924	亮麗
-2.447638	人	-0.3216112
-5.440924	人中
-5.440924	人主
-5.440924	人之常情
-3.69125	人事	-0.2473643
-5.440924	人事行政
-4.720465	人人	-0.2339585
-5.440924	人人自危
-4.109268	人們	-0.2751179
-5.440924	人傑
-5.440924	人像
-5.440924	人力
-5.440924	人力資源
-5.440924	人口
-5.440924	人口販子
-4.972836	人名	-0.2051699
-5.440924	人命
-5.440924	人和
-3.115978	人員	-0.2684551
-5.440924	人地
-3.401725	人士	-0.3752601
-5.440924	人壽
-5.440924	人壽保險
-4.109268	人家	-0.2143816
-5.440924	人山人海
-5.440924	人工
-5.440924	人工智慧
-5.440924	人工色素
-5.440924	人工閱卷
-5.440924	人形
-5.440924	人從
-5.440924	人心
-5.440924	人心惶惶
-5.440924	人性
-5.440924	人情
-5.440924	人情味
-5.440924	人手
-5.440924	人才
-3.953463	人數	-0.2301532
-5.440924	人文
-5.440924	人時
-5.440924	人格
-5.440924	人機介面
-5.440924	人權
-5.440924	人次
-5.440924	人欲
-5.440924	人民
-5.440924	人民幣
-5.440924	人氣
-5.440924	人海戰術
-5.440924	人滿為患
-5.440924	人潮
-5.440924	人為
-5.440924	人煙稀少
-3.921908	人物	-0.3653373
-5.440924	人物畫
-5.440924	人犯
-5.440924	人瑞
-5.440924	人生
-5.440924	人生觀
-5.440924	人群
-5.171073	人聲	-0.2005062
-5.440924	人肉市場
-5.440924	人行道
-5.440924	人言可畏
-5.440924	人謀不臧
-5.440924	人質
-5.440924	人贓俱獲
-5.440924	人身
-5.440924	人造衛星
-5.440924	人道
-5.440924	人選
-5.440924	人間
-5.440924	人間仙境
-5.440924	人際
-5.440924	人頭
-5.440924	人頭戶
-4.214827	人類	-0.2571737
-5.440924	人類學
-5.440924	人馬
-5.440924	人體
-5.440924	人體彩繪
-5.28259	什	-0.2005472
-3.554262	什麼	-0.2792689
-3.656858	仁	-0.2579239
-5.440924	仁德
-5.440924	仁愛
-5.440924	仁智互見
-5.440924	仁義道德
-4.445974	仇	-0.2302982
-5.440924	仇人
-5.440924	仇恨
-3.814587	今	-0.3408796
-5.440924	今世
-5.440924	今人
-3.673713	今天	-0.1980468
-3.440125	今年	-0.2930969
-5.440924	今後
-3.892491	今日	-0.2058267
-5.440924	今晚
-3.516766	介	-0.7163746
-5.440924	介入
-5.28259	介意	-0.1899603
-5.440924	介石
-3.748554	介紹	-0.3853624
-5.440924	介質
-5.440924	介面卡
-2.842623	仍	-0.5038429
-5.440924	仍是
-3.640632	仍然	-0.2366022
-5.440924	仍舊
-4.279103	仔	-0.2047866
-4.354573	仔細	-0.1852254
-4.279103	仕	-0.298477
-5.440924	仕女
-5.440924	仕紳
-5.440924	仕途
-2.792392	他	-0.2920518
-5.440924	他人
-3.310864	他們	-0.2260588
-5.440924	他國
-5.440924	他家
-5.440924	他時
-5.440924	他殺
-5.440924	他生
-5.440924	他處
-5.440924	他說
-4.561885	仗	-0.1912391
-5.440924	仗勢
-5.440924	仗義執言
-3.401725	付	-0.3130724
-5.440924	付之闕如
-5.440924	付出
-5.440924	付梓
-5.440924	付款
-5.440924	付清
-5.440924	付給
-5.440924	付諸實施
-5.440924	付費
-4.354573	仙	-0.2000575
-5.440924	仙人掌
-5.440924	仙女
-5.28259	仝	-0.2005399
-5.28259	仞	-0.1942224
-5.171073	仟	-0.2000102
-3.366447	代	-0.3436378
-5.440924	代代
-5.440924	代價
-5.440924	代工
-5.440924	代打
-5.440924	代書
-5.440924	代替
-5.440924	代理
-5.440924	代理人
-5.440924	代理商
-5.440924	代碼
-5.440924	代管
-3.21735	代表	-0.3028253
-5.440924	代表作
-5.440924	代表團
-5.440924	代言人
-4.720465	代課	-0.2046065
-5.440924	代辦
-5.440924	代銷
-3.199686	令	-0.4533369
-5.440924	令人
-5.440924	令人心寒
-5.440924	令人意外
-5.440924	令人激賞
-2.62718	以	-0.1834013
-3.516766	以上	-0.5562205
-3.953463	以下	-0.3719051
-5.440924	以來
-5.440924	以便
-5.440924	以偏概全
-4.972836	以免	-0.2468708
-4.720465	以內	-0.2509655
-3.769469	以前	-0.3554185
-4.064773	以及	-0.2351836
-4.354573	以外	-0.2810978
-5.440924	以太
-4.024416	以往	-0.2848656
-3.69125	以後	-0.4546702
-5.171073	以是	-0.340868
-5.440924	以暴制暴
-5.440924	以次
-5.440924	以此
-3.791442	以為	-0.276783
-5.440924	以牙還牙
-5.440924	以禮相待
-5.440924	以至
-5.440924	以致
-4.064773	以色列	-0.1859948
-5.440924	以身試法
-5.440924	以還
-5.440924	以鄰為壑
-5.440924	以防萬一
-4.445974	仰	-0.2921731
-5.440924	仰天
-5.440924	仰慕
-5.440924	仰臥
-5.440924	仰賴
-4.158848	仲	-0.3060406
-5.440924	仲介
-5.440924	仲裁
-3.567516	件	-0.4564234
-5.440924	件數
-3.140447	任	-0.3426974
-5.440924	任事
-3.383728	任何	-0.2720538
-5.440924	任內
-5.440924	任務
-5.440924	任命
-5.440924	任性
-4.445974	任意	-0.2043595
-5.440924	任憑
-5.440924	任所
-5.440924	任教
-5.440924	任期
-5.440924	任用
-5.440924	任由
-5.440924	任職
-3.640632	份	-0.3453568
-4.109268	仿	-0.3370112
-5.440924	仿冒
-5.440924	仿冒品
-5.440924	仿古
-5.440924	仿效
-5.440924	仿照
-5.440924	仿製品
-3.349827	企	-0.9875543
-5.440924	企劃
-5.440924	企圖
-5.440924	企望
-5.440924	企業
-5.440924	企業化
-5.440924	企業家
-5.440924	企盼
-5.440924	伉儷
-3.987492	伊	-0.2279517
-5.440924	伊凡諾夫
-3.656858	伊拉克	-0.2353933
-5.440924	伊斯蘭教
-5.28259	伊朗	-0.1991127
-5.440924	伊洛
-4.445974	伍	-0.3344668
-5.440924	伎倆
-4.279103	伏	-0.3340962
-4.720465	伐	-0.1929201
-5.440924	伐木
-3.814587	休	-0.4256285
-5.440924	休假
-5.440924	休市
-3.769469	休息	-0.4510888
-5.440924	休憩
-5.440924	休會
-5.440924	休止符
-5.440924	休耕
-4.024416	休閒	-0.1768773
-5.440924	休閒活動
-5.440924	休養
-5.440924	伙食
-5.440924	伙食團
-3.987492	伯	-0.180322
-5.440924	伯仲之間
-5.440924	伯勞鳥
-5.440924	伯父
-5.440924	伯納
-5.28259	估算	-0.1989335
-4.354573	估計	-0.2550256
-5.440924	估量
-3.987492	伴	-0.2264171
-5.440924	伴侶
-5.440924	伴唱帶
-5.440924	伴奏
-5.440924	伴隨
-4.972836	伶	-0.1888365
-4.354573	伸	-0.3979636
-5.440924	伸出援手
-5.440924	伸張
-5.440924	伸手
-4.158848	伺	-0.5449377
-5.440924	伺機
-3.892491	似	-0.2704971
-3.640632	似乎	-0.2882876
-5.171073	似的	-0.2988819
-4.158848	但	-0.3081304
-5.440924	但使
-5.440924	但得
-5.171073	但是	-0.3096443
-5.440924	但有
-5.440924	但民
-5.440924	但願
-5.440924	佇立
-5.440924	佇足
-3.791442	佈	-0.3154618
-3.275111	位	-0.3337305
-5.440924	位址
-5.28259	位子	-0.2005399
-5.440924	位於
-4.214827	位置	-0.5277732
-5.440924	位階
-3.199686	低	-0.5072294
-5.440924	低估
-5.440924	低價
-5.440924	低利率
-5.440924	低微
-5.440924	低收入戶
-5.440924	低檔
-5.440924	低溫
-5.440924	低潮
-5.440924	低胸
-5.440924	低落
-5.440924	低迷
-5.440924	低迷不振
-5.440924	低階
-5.440924	低音
-5.440924	低頭
-5.440924	低點
-3.135442	住	-0.4418153
-5.440924	住址
-5.440924	住宅
-5.440924	住宅區
-5.440924	住家
-5.440924	住宿
-5.440924	住屋
-5.440924	住戶
-5.440924	住所
-5.440924	住持
-5.440924	住民
-5.440924	住處
-5.440924	住院
-4.445974	佐	-0.2213001
-5.440924	佐料
-5.440924	佐證
-4.972836	佑	-0.317875
-3.401725	佔	-0.5335247
-3.430202	何	-0.4018309
-5.171073	何不	-0.2032643
-5.440924	何事
-5.440924	何人
-5.440924	何以
-5.440924	何其
-5.440924	何去何從
-5.440924	何嘗
-5.440924	何在
-5.440924	何妨
-4.720465	何必	-0.2251524
-5.440924	何方
-5.440924	何時
-5.440924	何有
-5.440924	何況
-5.440924	何種
-5.440924	何等
-5.440924	何苦
-4.279103	何處	-0.2899789
-5.440924	何許人
-3.987492	余	-0.40231
-3.921908	佛	-0.2667389
-5.440924	佛像
-5.440924	佛教
-5.440924	佛朗哥
-5.440924	佛法
-5.440924	佛門
-2.852886	作	-0.377141
-5.440924	作主
-5.440924	作價
-3.69125	作品	-0.3836231
-5.440924	作嘔
-5.440924	作夢
-5.440924	作如是觀
-5.440924	作媒
-5.440924	作家
-5.440924	作弊
-5.440924	作怪
-5.440924	作息
-5.440924	作成
-5.440924	作戰
-5.440924	作文章
-5.440924	作曲
-5.440924	作東
-5.440924	作梗
-3.349827	作業	-0.5737691
-5.440924	作業系統
-3.987492	作法	-0.4557061
-3.748554	作為	-0.2022519
-5.440924	作物
-5.440924	作用
-5.440924	作畫
-5.440924	作祟
-5.440924	作答
-5.440924	作罷
-4.279103	作者	-0.3335741
-5.440924	作證
-5.440924	作陪
-5.440924	作風
-3.188296	你	-0.3700891
-5.440924	你丟我撿
-4.354573	你們	-0.204602
-4.354573	佩	-0.2801541
-5.440924	佩帶
-5.171073	佯	-0.2124915
-5.440924	佯裝
-5.28259	佰	-0.2004671
-3.656858	佳	-0.4905984
-5.440924	佳人
-5.440924	佳作
-5.440924	佳節
-5.440924	佳績
-5.440924	佳話
-5.440924	佳音
-4.024416	併	-0.2438148
-5.440924	併入
-5.440924	併吞
-5.440924	併案
-5.440924	併發
-5.440924	併發症
-5.440924	併購
-3.166377	使	-0.2357152
-5.440924	使命感
-5.440924	使喚
-4.109268	使得	-0.2176359
-5.440924	使性子
-5.440924	使然
-3.014589	使用	-0.6170468
-5.440924	使用權
-5.440924	使館
-5.440924	侃侃而談
-5.28259	侄	-0.2003285
-2.772525	來	-0.3380982
-4.972836	來不及	-0.2063566
-5.440924	來人
-5.440924	來使
-5.171073	來信	-0.1892155
-5.440924	來函
-5.440924	來勢
-5.440924	來勢洶洶
-5.440924	來回
-5.440924	來因
-5.440924	來年
-4.064773	來往	-0.3139926
-5.171073	來得	-0.2100893
-5.440924	來日
-5.440924	來歷不明
-3.921908	來源	-0.3058097
-5.440924	來的
-5.440924	來臨
-5.440924	來襲
-5.440924	來訪
-5.440924	來電
-3.709524	例	-0.5440907
-5.440924	例假日
-5.440924	例外
-5.28259	例如	-0.2034496
-4.354573	例子	-0.4416322
-5.440924	例行
-5.440924	例證
-5.440924	侍女
-3.21735	供	-0.4540648
-5.440924	供不應求
-5.440924	供佛
-5.440924	供品
-5.440924	供奉
-5.440924	供應
-5.440924	供應商
-5.440924	供桌
-5.440924	供水
-5.440924	供稱
-5.440924	供給
-5.440924	供詞
-5.440924	供述
-5.440924	供過於求
-5.440924	供銷
-5.440924	供電
-5.440924	供需
-5.440924	供需失衡
-3.09735	依	-0.4467208
-5.440924	依依不捨
-5.440924	依原
-5.440924	依序
-5.440924	依據
-5.440924	依法
-5.440924	依然
-5.440924	依然如故
-5.440924	依照
-5.440924	依約
-5.440924	依舊
-5.440924	依賴
-5.440924	依賴性
-5.440924	依附
-5.440924	依靠
-5.440924	侮辱
-5.171073	侯	-0.3866003
-3.624991	侵	-0.4776345
-5.440924	侵入
-5.440924	侵占
-5.440924	侵吞
-5.440924	侵害
-5.440924	侵犯
-5.440924	侵略
-5.440924	侵襲
-5.171073	侶	-0.1880861
-5.440924	侷限
-3.205494	便	-0.382364
-5.440924	便不
-5.440924	便利
-5.440924	便可
-5.440924	便宜
-5.440924	便宜貨
-5.440924	便應
-5.440924	便捷
-5.440924	便是
-5.440924	便會
-5.440924	便服
-5.440924	便民
-5.440924	便當
-5.440924	便衣
-3.440125	係	-0.2429758
-3.640632	促	-0.4923648
-5.440924	促使
-5.440924	促成
-5.440924	促狹
-5.440924	促請
-5.440924	促進
-5.440924	促銷
-4.158848	俄	-0.3686551
-5.440924	俄國
-5.440924	俄羅斯
-4.158848	俊	-0.2809969
-5.440924	俊德
-5.440924	俊民
-3.921908	俗	-0.2164781
-5.440924	俗事
-5.440924	俗話
-2.999774	保	-0.5023862
-5.440924	保住
-5.440924	保健
-5.440924	保全
-5.440924	保全業
-5.440924	保加利亞
-5.440924	保固
-5.440924	保存
-5.440924	保守
-5.440924	保守派
-5.440924	保安
-5.440924	保安處分
-5.440924	保安警察
-5.440924	保密
-5.440924	保持
-5.440924	保有
-5.440924	保母
-5.440924	保溫
-3.892491	保留	-0.3099412
-5.440924	保管
-5.440924	保羅
-5.440924	保育
-5.440924	保衛
-3.921908	保證	-0.2993981
-5.440924	保證人
-5.440924	保證書
-5.440924	保證金
-5.440924	保警
-3.640632	保護	-0.2945952
-5.440924	保護人
-5.440924	保護區
-5.440924	保護管束
-5.440924	保費
-5.440924	保送
-5.440924	保鏢
-5.440924	保鑣
-5.440924	保障
-5.440924	保險
-5.440924	保險公司
-5.440924	保險櫃
-5.440924	保險經紀人
-5.440924	保險費
-5.440924	保險金
-5.440924	保養
-5.440924	保鮮
-5.440924	保齡球
-4.972836	俞	-0.2107734
-5.171073	俟	-0.2154118
-5.440924	俠
-3.254991	信	-0.4267434
-5.440924	信以為真
-4.445974	信仰	-0.2340826
-4.972836	信件	-0.7760032
-5.440924	信任
-5.440924	信奉
-5.440924	信封
-5.440924	信徒
-3.921908	信心	-0.3221278
-5.440924	信心十足
-5.440924	信念
-5.440924	信手
-5.440924	信服
-5.440924	信用
-5.440924	信用交易
-5.440924	信用卡
-4.972836	信箱	-0.6668587
-5.440924	信義
-5.28259	信號	-0.1833482
-4.561885	信託	-0.1974697
-5.440924	信託資金
-5.440924	信誓旦旦
-5.440924	信譽
-3.28203	修	-0.4293974
-5.440924	修史
-5.440924	修女
-5.440924	修建
-5.440924	修復
-3.953463	修憲	-0.2020919
-3.921908	修改	-0.2796838
-5.440924	修業
-5.440924	修正
-4.445974	修理	-0.1870365
-5.440924	修築
-5.440924	修繕
-5.440924	修補
-5.440924	修訂
-5.440924	修護
-5.440924	修長
-5.440924	修飾
-5.440924	俯拾皆是
-5.440924	俯首認罪
-5.440924	俱樂部
-5.28259	俾	-0.3092976
-4.279103	倆	-0.3476229
-5.440924	倉庫
-3.182712	個	-0.3746023
-5.28259	個中	-0.2123977
-5.440924	個事
-3.516766	個人	-0.200125
-5.440924	個人資料
-5.28259	個人電腦	-0.1942224
-5.440924	個個
-5.440924	個別
-5.171073	個展	-0.1898733
-4.445974	個性	-0.2206599
-5.440924	個案
-5.440924	個頭
-5.440924	個體
-5.28259	倌	-0.2006238
-3.814587	倍	-0.6069225
-5.440924	倍增
-5.440924	倍感親切
-5.440924	倍數
-5.440924	倍覺
-5.28259	倏	-0.2005327
-3.471331	們	-0.3137535
-3.45028	倒	-0.4025683
-5.440924	倒下
-5.440924	倒不如
-5.440924	倒不是
-5.440924	倒地
-5.440924	倒坍
-5.440924	倒塌
-5.440924	倒影
-5.440924	倒打一耙
-5.171073	倒數	-0.2606274
-4.354573	倒是	-0.2298787
-5.440924	倒楣
-5.440924	倒臥
-5.440924	倒車
-5.440924	倒閉
-4.561885	倖	-0.2417824
-5.440924	倖免
-5.440924	倖存
-5.28259	倘	-0.4550757
-5.440924	倘若
-3.839034	候	-0.2495271
-5.440924	候審
-5.440924	候補
-5.440924	候診
-5.440924	候車
-5.440924	候選人
-5.440924	候鳥
-5.440924	倚重
-3.595304	借	-0.2722
-5.440924	借提
-5.440924	借款
-5.440924	借用
-5.440924	借調
-5.440924	借貸
-5.440924	借貸無門
-5.440924	借酒澆愁
-5.440924	借重
-5.440924	借錢
-5.440924	借鏡
-5.440924	借鑑
-5.440924	倡導
-5.440924	倡議
-4.158848	倫	-0.3107177
-5.440924	倫敦
-5.440924	倫比
-5.440924	倫理
-5.28259	倬	-0.3087796
-3.581188	值	-0.3640043
-5.440924	值勤
-5.440924	值回票價
-3.554262	值得	-0.2837086
-5.440924	值班
-5.440924	偃旗息鼓
-3.420501	假	-0.362746
-5.440924	假使
-5.440924	假冒
-5.440924	假如
-5.440924	假性
-5.440924	假扣押
-5.440924	假日
-5.440924	假日花市
-5.440924	假期
-5.440924	假若
-5.440924	假裝
-5.171073	假設	-0.3088767
-5.440924	假象
-5.440924	假釋
-3.987492	偉	-0.3631431
-5.440924	偉大
-3.528908	偏	-0.3324137
-5.440924	偏低
-5.440924	偏偏
-5.440924	偏僻
-5.440924	偏向
-5.440924	偏好
-5.440924	偏差
-5.440924	偏廢
-5.440924	偏心
-5.440924	偏袒
-5.440924	偏要
-5.440924	偏遠
-5.440924	偏重
-5.171073	偏離	-0.2086794
-5.440924	偏高
-4.720465	偕	-0.1985233
-5.440924	偕同
-3.083885	做	-0.3265578
-5.171073	做下	-0.278791
-5.440924	做主
-5.440924	做事
-5.440924	做人
-5.440924	做人情
-4.561885	做到	-0.3414226
-5.440924	做夢
-5.440924	做大
-5.440924	做得
-4.445974	做法	-0.2315947
-4.445974	做生意	-0.3436249
-5.440924	做頭
-3.229538	停	-0.4160389
-5.440924	停住
-5.440924	停工
-5.440924	停息
-5.440924	停擺
-5.440924	停放
-5.440924	停格
-5.440924	停業
-3.921908	停止	-0.2496668
-5.440924	停水
-5.440924	停泊
-5.440924	停火
-5.440924	停產
-4.158848	停留	-0.2904303
-5.440924	停罷
-5.440924	停職
-5.28259	停課	-0.1899603
-5.440924	停車
-5.440924	停車位
-5.440924	停車場
-5.440924	停車費
-5.440924	停辦
-5.440924	停電
-5.440924	停靠
-5.440924	停頓
-5.440924	停駛
-3.69125	健	-0.4185476
-5.440924	健全
-4.109268	健康	-0.3581936
-5.440924	健康保險
-5.440924	健康檢查
-5.440924	健忘症
-5.440924	健美
-5.440924	健行
-5.440924	健身
-4.109268	側	-0.3334031
-5.440924	側門
-5.28259	側面	-0.2005873
-3.383728	偵	-0.8866572
-5.440924	偵察機
-5.440924	偵查
-5.440924	偵查終結
-5.440924	偵測
-5.440924	偵破
-5.440924	偵訊
-5.440924	偵辦
-5.440924	偵錯
-5.440924	偵防
-4.064773	偶	-0.3384539
-5.440924	偶像
-5.171073	偶爾	-0.1984557
-5.440924	偶發
-5.440924	偶而
-3.814587	偷	-0.4786803
-4.972836	偷偷	-0.2002334
-5.440924	偷取
-5.440924	偷工減料
-5.440924	偷渡
-5.440924	偷渡客
-5.440924	偷竊
-5.440924	偷腥
-5.440924	偷襲
-4.064773	偽	-0.4899853
-5.440924	偽品
-5.440924	偽造
-5.440924	偽造文書
-5.440924	偽鈔
-5.440924	傀儡戲
-4.445974	傅	-0.2491153
-5.440924	傅抱石
-5.440924	傍晚
-3.987492	傑	-0.6783209
-5.440924	傑作
-5.440924	傑出
-4.972836	傘	-0.2552758
-3.430202	備	-0.3273253
-5.440924	備份
-5.440924	備受威脅
-5.440924	備受矚目
-5.440924	備受禮遇
-5.440924	備妥
-5.440924	備忘錄
-5.440924	備查
-5.440924	備註
-5.440924	傢俱
-4.445974	催	-0.199137
-5.440924	催化劑
-5.440924	催討
-5.440924	催逼
-5.171073	傲	-0.1968205
-3.058146	傳	-0.5765491
-5.440924	傳喚
-5.440924	傳單
-5.440924	傳奇
-5.440924	傳媒
-5.440924	傳導
-5.440924	傳授
-5.440924	傳播
-5.440924	傳播媒體
-5.440924	傳染
-5.440924	傳染病
-5.440924	傳真
-5.440924	傳真機
-5.440924	傳神
-5.440924	傳票
-3.892491	傳統	-0.1891059
-5.440924	傳統文化
-5.440924	傳聞
-5.440924	傳言
-5.440924	傳訊
-5.440924	傳說
-4.354573	傳輸	-0.2509991
-4.720465	傳送	-0.1957852
-5.440924	傳達
-4.354573	傳遞	-0.4334415
-5.440924	傳閱
-5.440924	傳頌
-3.709524	債	-0.4479198
-5.440924	債券
-5.440924	債務
-5.440924	債權
-5.440924	債權人
-3.261595	傷	-0.4581057
-5.440924	傷亡
-5.440924	傷勢
-5.440924	傷天害理
-5.440924	傷害
-5.440924	傷害罪
-5.440924	傷心
-5.440924	傷患
-5.440924	傷感
-5.440924	傷殘
-5.440924	傷腦筋
-5.440924	傷風
-5.440924	傻勁
-5.440924	傻瓜
-5.440924	傻眼
-5.440924	傻笑
-3.839034	傾	-0.6137496
-5.440924	傾倒
-5.440924	傾向
-5.440924	傾訴
-5.440924	傾銷
-3.34175	僅	-0.3223314
-5.440924	僅僅
-5.440924	僅有
-3.673713	像	-0.276155
-4.972836	像是	-0.2816707
-5.440924	像樣
-3.921908	僑	-0.2330127
-5.440924	僑務
-5.440924	僑委會
-5.440924	僑民
-5.440924	僑生
-5.440924	僑社
-5.440924	僑選代表
-5.440924	僥倖
-4.561885	僧	-0.1800053
-5.440924	僧尼
-4.279103	僱	-0.267705
-5.440924	僱用
-5.440924	僱請
-5.440924	僱車
-4.561885	僵	-0.2448509
-5.440924	僵局
-5.440924	僵持不下
-3.026042	價	-0.4344463
-5.440924	價位
-5.440924	價值
-5.440924	價值觀
-5.440924	價格
-5.440924	價碼
-5.440924	價錢
-5.440924	僻地
-5.440924	僻巷
-5.440924	僻處
-3.892491	儀	-0.4366657
-5.440924	儀器
-5.440924	儀容
-5.440924	儀式
-5.440924	儀表板
-5.440924	儀隊
-5.28259	儂	-0.1992991
-3.673713	億	-0.6346158
-5.440924	億萬
-4.972836	儒	-0.1934913
-3.892491	儘	-0.9554532
-5.440924	儘快
-5.440924	儘早
-5.440924	儘管
-4.158848	儘量	-0.1960989
-4.024416	償	-0.2996452
-5.440924	償債
-5.440924	償還
-3.401725	優	-0.5877212
-3.987492	優先	-0.2299781
-5.440924	優先權
-5.440924	優劣
-5.440924	優勝
-5.440924	優勢
-5.440924	優厚
-5.440924	優待
-5.440924	優惠
-5.440924	優惠關稅
-5.440924	優渥
-5.440924	優異
-5.440924	優秀
-5.440924	優美
-5.440924	優良
-5.440924	優越感
-5.440924	優酪乳
-5.440924	優雅
-5.440924	優點
-3.864941	儲	-0.4107748
-5.440924	儲備
-5.440924	儲存
-5.440924	儲藏
-5.171073	儷	-0.1899331
-5.440924	儼然
-4.158848	允	-0.2389968
-5.440924	允准
-4.445974	允許	-0.4093334
-5.440924	允諾
-3.953463	元	-0.6477585
-5.440924	元日
-3.839034	兄	-0.4977845
-5.440924	兄嫂
-5.440924	兄弟
-5.440924	兄長
-3.69125	充	-0.4421216
-5.440924	充公
-5.440924	充其量
-4.158848	充分	-0.211243
-5.440924	充分就業
-5.440924	充塞
-5.440924	充實
-4.279103	充斥	-0.2840987
-5.440924	充沛
-4.354573	充滿	-0.232406
-5.440924	充當
-5.440924	充裕
-5.440924	充足
-5.440924	充電
-4.354573	兆	-0.2612079
-3.921908	兇	-0.2950304
-3.049895	先	-0.3780644
-5.440924	先例
-5.440924	先前
-5.440924	先天
-5.440924	先天不足
-5.440924	先天性
-5.440924	先導
-4.445974	先後	-0.1976178
-5.440924	先德
-5.440924	先斬後奏
-5.440924	先時
-5.440924	先期
-5.440924	先機
-5.440924	先民
-5.440924	先決條件
-5.440924	先生
-5.440924	先發
-5.440924	先知
-5.440924	先行
-5.440924	先進
-5.440924	先進國家
-5.440924	先鋒
-3.171754	光	-0.3420889
-5.440924	光圈
-5.440924	光國
-5.440924	光彩
-5.440924	光復
-5.440924	光復節
-5.440924	光明
-5.440924	光明正大
-5.440924	光景
-5.440924	光源
-5.440924	光澤
-5.440924	光照
-4.109268	光碟	-0.7089819
-5.440924	光碟機
-5.440924	光線
-5.171073	光纖	-0.3655808
-5.440924	光纖電纜
-5.440924	光耀
-5.440924	光臨
-5.440924	光芒
-5.440924	光華
-5.440924	光譜
-5.440924	光采
-5.440924	光電
-5.440924	光頭
-5.440924	光顧
-3.624991	克	-0.2532489
-5.440924	克敵制勝
-4.158848	克服	-0.2108732
-5.440924	克里姆林宮
-4.064773	兌	-0.409801
-5.440924	兌換
-5.440924	兌換券
-5.440924	兌現
-3.567516	免	-0.3888549
-4.972836	免不了	-0.2003484
-5.440924	免得
-5.440924	免疫力
-5.440924	免稅
-5.440924	免稅額
-5.440924	免談
-5.440924	免費
-5.440924	免除
-3.624991	兒	-0.3731284
-5.440924	兒女
-5.440924	兒媳
-5.440924	兒子
-5.440924	兒時
-3.921908	兒童	-0.1669437
-5.440924	兒童福利
-5.440924	兜售
-2.996148	入	-0.2878241
-5.440924	入伍
-5.440924	入侵
-5.440924	入圍
-5.440924	入場
-5.440924	入場券
-5.440924	入境
-5.440924	入夜
-5.440924	入學
-5.440924	入山
-5.440924	入山證
-5.440924	入己
-5.440924	入會
-5.440924	入流
-5.440924	入港
-5.440924	入獄
-5.440924	入睡
-5.440924	入網
-5.440924	入罪
-5.440924	入耳
-5.440924	入迷
-5.440924	入選
-5.440924	入門
-5.440924	入院
-2.827669	內	-0.3984515
-5.440924	內主
-5.440924	內亂
-5.440924	內亂罪
-5.440924	內人
-5.440924	內勤
-5.440924	內向
-5.440924	內含
-5.440924	內在
-5.440924	內外
-5.440924	內子
-3.69125	內容	-0.4380723
-5.440924	內幕
-5.440924	內心
-5.440924	內心深處
-5.440924	內急
-5.440924	內情
-5.440924	內憂外患
-5.440924	內政
-5.440924	內政部
-5.440924	內河
-5.171073	內涵	-0.1883618
-5.440924	內爭
-5.440924	內線交易
-5.440924	內臟
-5.440924	內衣
-5.440924	內訌
-5.440924	內部
-5.440924	內野
-5.440924	內銷
-5.440924	內閣
-5.440924	內陸
-2.899432	全	-0.4650335
-5.440924	全世界
-5.440924	全副
-5.440924	全力
-5.440924	全力以赴
-5.440924	全勤
-3.892491	全國	-0.2024625
-5.440924	全國性
-5.440924	全壘打
-5.440924	全天候
-5.440924	全家
-5.440924	全年
-5.440924	全數
-5.28259	全新	-0.1942224
-5.440924	全權
-5.440924	全武行
-5.440924	全民
-5.440924	全民保險
-5.440924	全民健保
-5.440924	全民健康保險
-5.440924	全然
-4.109268	全球	-0.2044243
-5.440924	全盛
-5.440924	全盤
-5.440924	全神貫注
-5.440924	全程
-5.440924	全等
-5.440924	全能
-5.440924	全身
-5.440924	全速
-3.814587	全部	-0.1914533
-5.440924	全錄
-5.440924	全長
-3.839034	全面	-0.1929034
-5.440924	全額
-5.440924	全體
-2.813213	兩	-0.5155653
-5.440924	兩伊戰爭
-5.440924	兩回事
-5.440924	兩岸
-5.440924	兩性關係
-5.440924	兩情相悅
-5.440924	兩手
-5.440924	兩旁
-5.440924	兩棲
-5.440924	兩極化
-5.171073	兩樣	-0.6668587
-5.440924	兩用
-5.440924	兩端
-5.171073	兩邊	-0.2730469
-5.440924	兩面
-3.199686	八	-0.4852693
-5.171073	八九	-0.1923787
-5.440924	八元
-5.440924	八刀
-5.440924	八分
-5.440924	八卦山
-5.440924	八字
-5.440924	八年抗戰
-5.440924	八德
-5.28259	八成	-0.2006565
-5.440924	八斗子
-5.440924	八里
-5.440924	八面玲瓏
-5.440924	八音
-5.440924	八點檔
-2.6938	公	-0.7094881
-5.440924	公主
-5.440924	公事
-5.440924	公事公辦
-5.440924	公保
-5.440924	公信力
-5.440924	公假
-5.440924	公債
-5.440924	公克
-5.440924	公共
-5.440924	公共場所
-5.440924	公共安全
-5.440924	公共建設
-5.440924	公共汽車
-5.440924	公共給水
-5.440924	公共衛生
-5.440924	公共設施
-5.440924	公共設施用地
-5.440924	公共關係
-5.440924	公共電話
-4.561885	公分	-0.3193501
-5.440924	公務
-5.440924	公務人員
-5.440924	公務員
-3.033848	公司	-0.320425
-5.440924	公司債
-5.440924	公司行號
-3.892491	公告	-0.2244806
-5.440924	公噸
-5.440924	公園
-5.440924	公地
-5.440924	公報
-5.440924	公墓
-5.440924	公婆
-5.440924	公子
-5.440924	公安
-5.440924	公室
-5.440924	公害
-5.440924	公家
-5.440924	公家機關
-5.440924	公寓
-5.440924	公尺
-5.440924	公布
-5.440924	公帑
-5.440924	公平
-5.440924	公平交易
-5.440924	公平交易法
-5.28259	公式	-0.1899603
-5.440924	公德心
-5.440924	公忠體國
-5.440924	公所
-5.440924	公教人員
-5.440924	公敵
-5.440924	公文
-5.440924	公斤
-5.440924	公斷
-5.440924	公會
-5.440924	公有
-5.440924	公權力
-5.440924	公款
-5.440924	公正
-5.440924	公民
-5.440924	公民投票
-5.440924	公決
-5.440924	公演
-5.440924	公然
-5.440924	公營
-5.440924	公營事業
-5.440924	公物
-5.440924	公產
-5.440924	公用
-5.440924	公用事業費率
-5.440924	公用程式
-5.440924	公益
-5.440924	公眾人物
-5.440924	公石
-5.440924	公私
-5.440924	公秉
-5.440924	公義
-5.440924	公職
-5.440924	公職人員
-5.440924	公聽會
-5.171073	公視	-0.2084023
-5.440924	公評
-5.440924	公論
-5.440924	公諸於世
-5.440924	公證
-5.440924	公費
-5.440924	公賣局
-3.839034	公路	-0.3168651
-5.440924	公路局
-3.656858	公車	-0.3084205
-5.440924	公車專用道
-5.440924	公車票
-5.440924	公車處
-5.440924	公道
-5.440924	公里
-5.440924	公門
-5.440924	公開
-5.440924	公開場合
-5.440924	公開市場操作
-5.440924	公開賽
-5.440924	公關
-5.440924	公頃
-2.971579	六	-0.6023645
-5.440924	六位
-5.440924	六合彩
-5.440924	六四天安門事件
-5.440924	六家
-5.440924	六月
-5.440924	六甲
-5.440924	六輕
-5.440924	六龜
-3.140447	共	-0.3653633
-5.440924	共乘
-5.440924	共事
-5.440924	共享
-5.440924	共分
-3.609894	共同	-0.2237024
-5.440924	共同努力
-5.440924	共同管道
-5.440924	共同運銷
-5.440924	共同體
-5.440924	共同點
-5.440924	共和
-5.440924	共和國
-5.440924	共存
-5.440924	共度
-4.158848	共有	-0.3875866
-5.440924	共犯
-5.440924	共產主義
-5.440924	共產集團
-5.440924	共產黨
-5.171073	共用	-0.2083841
-5.440924	共相
-5.440924	共總
-5.440924	共舞
-5.440924	共處
-5.440924	共計
-5.440924	共識
-5.440924	共通
-5.440924	共體時艱
-3.45028	兵	-0.2598984
-5.440924	兵力
-5.440924	兵器
-5.440924	兵團
-5.440924	兵家
-5.440924	兵工廠
-5.440924	兵役
-5.440924	兵役課
-5.440924	兵戎
-5.440924	兵法家
-5.440924	兵變
-2.822797	其	-0.2309852
-3.769469	其中	-0.384012
-3.33382	其他	-0.2562159
-5.440924	其內
-4.158848	其實	-0.2736319
-5.440924	其後
-5.28259	其次	-0.6760733
-5.440924	其間
-5.440924	其餘
-3.440125	具	-0.2531034
-4.279103	具備	-0.2137864
-5.440924	具名
-3.709524	具有	-0.2108006
-5.440924	具狀
-5.440924	具結
-5.440924	具象
-3.953463	具體	-0.2468514
-3.892491	典	-0.4145254
-5.440924	典型
-5.440924	典獄長
-5.440924	典當
-5.440924	典禮
-5.440924	典範
-5.171073	典藏	-0.2988819
-3.814587	兼	-0.5832933
-5.440924	兼之
-5.440924	兼任
-5.440924	兼具
-5.440924	兼容並蓄
-5.440924	兼差
-5.440924	兼營
-4.445974	兼顧	-0.1948552
-4.109268	冊	-0.3882231
-2.91115	再	-0.3248812
-5.440924	再三
-5.440924	再不
-5.440924	再世
-4.720465	再來	-0.2686931
-5.440924	再娶
-3.554262	再度	-0.2200253
-5.440924	再接再厲
-5.440924	再犯
-5.440924	再犯率
-5.440924	再現
-5.440924	再生
-4.561885	再說	-0.3342454
-5.440924	再議
-5.440924	再起
-3.839034	冒	-0.3096769
-5.440924	冒充
-5.440924	冒領
-5.440924	冗繁
-5.440924	冗長
-3.656858	冠	-0.4446128
-5.440924	冠蓋雲集
-5.440924	冠軍
-5.440924	冤仇
-5.440924	冤大頭
-5.440924	冤屈
-5.440924	冤枉
-5.440924	冤魂
-5.440924	冥紙
-3.987492	冬	-0.3780676
-5.440924	冬天
-5.440924	冬季
-5.440924	冬暖夏涼
-5.440924	冬眠
-4.214827	冰	-0.1969629
-5.440924	冰上曲棍球
-5.440924	冰凍三尺非一日之寒
-5.440924	冰品
-5.440924	冰天雪地
-5.440924	冰山
-5.440924	冰箱
-5.440924	冰雪
-5.440924	冰雹
-5.440924	冶蕩
-3.69125	冷	-0.2109355
-5.440924	冷凍
-5.440924	冷卻
-5.440924	冷感症
-5.440924	冷戰
-5.440924	冷汗
-5.440924	冷泉
-5.440924	冷淡
-5.440924	冷清
-5.440924	冷眼
-5.440924	冷硬
-5.440924	冷落
-5.440924	冷酷
-5.440924	冷靜
-5.440924	冷風
-5.28259	冽	-0.1942224
-4.064773	准	-0.249585
-5.440924	准予
-5.440924	准許
-5.28259	凋	-0.2006602
-3.814587	凌	-0.8213754
-5.440924	凌亂
-5.440924	凌厲
-5.440924	凌晨
-5.440924	凌辱
-5.440924	凌雲
-5.440924	凌駕
-5.440924	凍結
-5.440924	凝重
-4.561885	凡	-0.2292309
-4.972836	凡事	-0.1996333
-5.171073	凡是	-0.1975682
-4.445974	凱	-0.1819369
-4.561885	凶	-0.3157938
-5.440924	凶多吉少
-5.440924	凶嫌
-5.440924	凶案
-5.440924	凸顯
-5.440924	凹凸有致
-2.541934	出	-0.3636647
-5.440924	出世
-5.440924	出事
-5.440924	出事情
-5.440924	出人
-5.440924	出人意料
-5.440924	出人頭地
-5.440924	出任
-5.440924	出使
-3.640632	出來	-0.7000879
-5.440924	出借
-5.440924	出價
-5.440924	出入
-5.440924	出兵
-5.440924	出其不意
-5.440924	出列
-5.440924	出動
-5.440924	出勤
-4.561885	出去	-0.312321
-5.440924	出口
-5.440924	出口貿易
-5.440924	出售
-5.440924	出問題
-3.921908	出國	-0.244802
-5.440924	出土
-5.440924	出場
-5.440924	出境
-5.440924	出外
-5.28259	出奇	-0.303144
-5.440924	出局
-5.440924	出巡
-5.440924	出差
-5.440924	出差費
-5.440924	出席
-5.440924	出店
-5.440924	出庭
-5.440924	出廠
-5.440924	出戰
-5.440924	出手
-5.440924	出招
-5.440924	出擊
-5.440924	出書
-5.440924	出此下策
-5.440924	出殯
-5.440924	出氣
-5.440924	出沒
-5.440924	出海
-5.440924	出清
-5.440924	出港
-5.440924	出爐
-5.440924	出爾反爾
-5.440924	出版
-5.440924	出版品
-5.440924	出版法
-5.440924	出狀況
-5.440924	出獄
-3.248487	出現	-0.4150904
-5.440924	出生
-5.440924	出產
-4.024416	出發	-0.4151985
-5.440924	出發點
-5.440924	出的
-5.440924	出監
-5.440924	出眾
-5.440924	出示
-5.440924	出神入化
-5.440924	出租
-5.440924	出租汽車
-5.440924	出籠
-5.440924	出納
-5.440924	出納員
-5.440924	出缺
-5.440924	出脫
-5.440924	出色
-5.440924	出血
-5.440924	出言
-5.440924	出貨
-5.440924	出資
-5.440924	出賣
-5.440924	出賽
-5.440924	出走
-5.440924	出路
-5.440924	出身
-5.440924	出車
-5.440924	出軌
-5.440924	出道
-5.440924	出金
-5.440924	出錢
-5.440924	出錯
-4.720465	出門	-0.208709
-5.440924	出面
-5.28259	出頭	-0.1942224
-5.440924	出馬
-3.748554	函	-0.2847031
-5.440924	函件
-5.440924	函請
-3.656858	刀	-0.3317912
-5.440924	刀傷
-5.440924	刀削麵
-5.440924	刀械
-5.440924	刁民
-5.440924	刁鑽
-5.440924	刁難
-5.171073	刃	-0.2788736
-2.917129	分	-0.5199036
-5.440924	分享
-4.561885	分公司	-0.1885462
-3.921908	分別	-0.2071636
-5.440924	分割
-5.440924	分力
-5.440924	分區
-5.440924	分合
-4.561885	分子	-0.285927
-5.440924	分家
-5.440924	分局
-5.440924	分崩離析
-5.440924	分工
-5.440924	分店
-5.28259	分得	-0.1989993
-5.440924	分批
-5.440924	分擔
-5.440924	分攤
-5.440924	分支
-4.109268	分散	-0.2049461
-5.440924	分散式網路
-4.561885	分數	-0.2670993
-4.972836	分明	-0.1969605
-5.440924	分時
-5.440924	分曉
-3.640632	分析	-0.4376565
-5.440924	分校
-5.440924	分機
-5.440924	分歧
-5.28259	分段	-0.2004889
-5.440924	分界
-5.440924	分發
-5.440924	分組
-5.171073	分行	-0.2988819
-5.440924	分裂
-5.440924	分贓
-5.440924	分身乏術
-5.171073	分辨	-0.1979813
-5.440924	分道揚鑣
-3.728601	分配	-0.2485749
-5.440924	分銷
-5.440924	分錢
-4.024416	分鐘	-0.5387568
-4.720465	分開	-0.3592835
-5.440924	分隊
-5.440924	分際
-5.440924	分離
-5.440924	分頭
-4.445974	分類	-0.4957095
-5.440924	分駐所
-3.609894	切	-0.3535829
-5.440924	切入
-5.28259	切割	-0.1991602
-5.440924	切勿
-5.440924	切實
-5.440924	切忌
-5.440924	切換
-5.440924	切斷
-5.440924	切片檢查
-5.440924	切磋
-5.440924	切莫
-5.440924	切除
-3.953463	刊	-0.245281
-5.440924	刊出
-5.440924	刊物
-5.440924	刊登
-3.420501	刑	-0.5046938
-5.440924	刑事
-5.440924	刑事局
-5.440924	刑事訴訟
-5.440924	刑事警察局
-5.440924	刑期
-5.440924	刑案
-5.440924	刑求
-5.440924	刑法
-5.440924	刑罰
-5.440924	刑警
-5.440924	刑警隊
-5.440924	刑責
-4.720465	划	-0.2796043
-5.440924	划算
-3.199686	列	-0.569487
-5.440924	列入
-5.440924	列冊
-5.440924	列印
-5.440924	列席
-5.440924	列強
-5.440924	列管
-5.440924	列舉
-5.440924	列車
-5.440924	列隊
-3.640632	初	-0.2371836
-5.440924	初一十五
-5.440924	初始
-5.440924	初學
-5.440924	初審
-5.440924	初度
-4.354573	初期	-0.2569075
-5.440924	初次
-3.953463	初步	-0.2824719
-5.440924	初犯
-5.440924	初稿
-5.440924	初級
-5.440924	初階
-3.554262	判	-0.3491388
-5.440924	判事
-5.440924	判例
-5.440924	判刑
-5.440924	判定
-4.279103	判斷	-0.2908736
-5.440924	判斷力
-5.440924	判明
-5.440924	判決
-5.440924	判決書
-5.440924	判若兩人
-5.440924	判處
-3.656858	別	-0.3252366
-3.839034	別人	-0.3798082
-5.440924	別來
-5.440924	別傳
-5.440924	別具一格
-5.440924	別名
-5.440924	別墅
-5.440924	別室
-5.440924	別將
-5.440924	別提
-5.440924	別緻
-5.440924	別致
-5.440924	別說
-5.440924	別開生面
-5.28259	刨	-0.2001279
-3.041798	利	-0.4347856
-5.440924	利器
-5.440924	利多
-5.440924	利多於弊
-5.440924	利害得失
-5.440924	利巴
-5.440924	利市
-5.440924	利弊
-5.440924	利息
-5.440924	利息收入
-5.440924	利慾薰心
-5.440924	利潤
-5.440924	利率
-3.528908	利用	-0.2844524
-5.440924	利益
-5.440924	利益團體
-5.440924	利益輸送
-5.440924	利空
-5.440924	利空出盡
-5.440924	利誘
-5.440924	利雅德
-3.864941	刪	-0.8598269
-5.440924	刪減
-5.440924	刪除
-3.987492	刮	-0.2498446
-5.440924	刮刮
-5.440924	刮刮樂
-5.440924	刮目相看
-5.440924	刮鬍子
-2.7236	到	-0.2447525
-5.440924	到任
-5.440924	到場
-5.440924	到家
-5.440924	到差
-3.987492	到底	-0.3022281
-5.440924	到手
-5.440924	到時
-5.440924	到期
-5.440924	到案
-5.440924	到眼
-5.440924	到職
-4.064773	到處	-0.2142444
-5.440924	到達
-5.440924	到頭
-3.211381	制	-0.4040074
-5.440924	制定
-5.440924	制度
-5.440924	制度化
-5.440924	制式
-5.440924	制憲
-5.440924	制服
-5.440924	制止
-5.440924	制海
-5.440924	制衡
-5.440924	制裁
-5.440924	制訂
-4.561885	刷	-0.191515
-5.440924	刷洗
-3.709524	券	-0.3597366
-5.440924	券商
-3.769469	刺	-0.5589394
-5.440924	刺刀
-5.440924	刺殺
-5.440924	刺激
-5.440924	刺骨
-3.624991	刻	-0.3972165
-5.440924	刻不容緩
-5.440924	刻意
-5.440924	刻板
-5.440924	刻苦
-5.440924	刻薄
-5.440924	剃刀
-2.825226	則	-0.318827
-5.440924	則不
-5.440924	則是
-5.440924	則甚
-5.440924	削減
-5.440924	削髮
-2.67272	前	-0.5042461
-5.440924	前任
-5.440924	前來
-5.440924	前例
-5.440924	前前後後
-5.440924	前功盡棄
-5.440924	前卻
-5.440924	前去
-5.440924	前和
-5.440924	前因
-5.440924	前夕
-5.440924	前夜
-5.440924	前天
-5.440924	前夫
-5.440924	前妻
-5.440924	前導
-5.440924	前年
-5.440924	前往
-4.354573	前後	-0.187125
-5.440924	前所未有
-5.440924	前提
-5.440924	前方
-5.440924	前日
-5.440924	前晚
-5.440924	前景
-5.440924	前月
-5.440924	前期
-5.440924	前此
-5.440924	前瞻性
-4.720465	前科	-0.3656816
-5.440924	前程
-4.972836	前端	-0.1996386
-5.440924	前線
-5.440924	前者
-5.440924	前行
-5.440924	前身
-5.440924	前述
-5.440924	前途
-5.440924	前進
-5.440924	前鋒
-4.720465	前面	-0.2011111
-5.440924	前項
-5.440924	前頭
-5.440924	剎車
-5.440924	剎那
-4.720465	剖	-0.2049627
-5.440924	剖析
-5.440924	剖腹
-3.839034	剛	-0.2168747
-4.720465	剛剛	-0.1988098
-4.445974	剛好	-0.2399348
-5.171073	剛才	-0.1926989
-5.440924	剛烈
-4.445974	剝	-0.5097014
-5.440924	剝削
-4.158848	剩	-0.3293985
-4.445974	剩下	-0.1980263
-5.440924	剩餘
-4.024416	剪	-0.3181596
-5.440924	剪刀
-5.440924	剪紙
-5.440924	剪綵
-5.440924	剪裁
-5.440924	剪輯
-3.640632	副	-0.4057196
-5.440924	副作用
-5.440924	副教授
-5.440924	副理
-4.972836	副總統	-0.188492
-5.440924	副總裁
-5.440924	副署
-5.440924	副議長
-4.064773	割	-0.192632
-5.440924	割傷
-5.440924	割捨
-3.375001	創	-0.5068533
-5.440924	創下
-5.440924	創作
-5.440924	創傷
-5.440924	創口
-5.440924	創始
-5.440924	創意
-5.440924	創新
-5.440924	創校
-5.440924	創業
-5.440924	創業維艱
-5.440924	創痕
-5.440924	創立
-5.440924	創紀錄
-5.440924	創見
-5.440924	創設
-5.440924	創辦人
-4.720465	創造	-0.3086181
-5.440924	創造力
-5.171073	剷	-0.2125107
-5.440924	剽悍
-3.814587	劃	-0.412282
-4.561885	劃分	-0.1920152
-5.440924	劃定
-5.440924	劃歸
-5.440924	劃清
-5.440924	劃清界線
-3.554262	劇	-0.2811025
-5.440924	劇作家
-5.440924	劇團
-5.440924	劇場
-5.440924	劇情
-5.440924	劇本
-5.440924	劇校
-5.440924	劇烈
-5.440924	劇院
-4.972836	劈	-0.1973888
-5.440924	劈開
-3.5414	劉	-0.34035
-5.440924	劉邦
-5.440924	劉銘傳
-4.354573	劍	-0.5228061
-5.440924	劍及履及
-5.440924	劍拔弩張
-5.440924	劍潭
-4.158848	劑	-0.1916151
-5.440924	劑量
-2.954844	力	-0.3797845
-5.440924	力作
-5.440924	力克
-5.440924	力勸
-5.440924	力圖
-5.440924	力平衡
-5.440924	力挽狂瀾
-5.440924	力有未逮
-5.440924	力氣
-5.440924	力求
-5.440924	力爭
-5.440924	力道
-5.440924	力邀
-5.440924	力量
-3.554262	功	-0.3785197
-5.440924	功不可沒
-5.440924	功利
-5.440924	功力
-5.440924	功名
-5.171073	功夫	-0.1979626
-4.445974	功效	-1.05221
-5.440924	功業彪炳
-5.440924	功用
-3.375001	功能	-0.7805184
-5.440924	功課
-5.440924	功過
-2.92015	加	-0.5692574
-5.440924	加一
-3.567516	加以	-0.1948183
-5.440924	加倍
-5.440924	加值網路
-5.440924	加價
-5.440924	加入
-5.440924	加劇
-5.440924	加害
-5.440924	加封
-4.972836	加州	-0.1987659
-5.440924	加工
-5.440924	加工區
-5.440924	加工業
-5.440924	加強
-5.28259	加快	-0.1899603
-4.720465	加成	-0.4340832
-5.440924	加拿大
-5.440924	加權指數
-5.440924	加油
-5.440924	加油站
-5.440924	加派
-5.440924	加深
-5.440924	加班
-5.440924	加盟
-5.440924	加盟店
-5.440924	加碼
-5.440924	加緊
-5.440924	加裝
-5.440924	加速
-5.440924	加速度
-5.440924	加重
-4.214827	劣	-0.2658756
-5.440924	劣勢
-5.440924	劣貨
-5.440924	劣質
-3.5414	助	-0.3470928
-5.440924	助人
-5.440924	助手
-5.440924	助攻
-5.440924	助燃
-5.440924	助理
-5.440924	助益
-5.440924	助興
-5.440924	助選
-5.440924	助長
-5.440924	助陣
-5.171073	努	-0.1982789
-3.791442	努力	-0.4668256
-4.279103	劫	-0.308598
-5.440924	劫囚
-4.109268	勁	-0.3881197
-5.440924	勁旅
-4.561885	勃	-0.2698436
-5.440924	勃然大怒
-3.953463	勇	-0.3844303
-5.440924	勇冠三軍
-5.440924	勇敢
-5.440924	勇氣
-4.064773	勉	-0.3262771
-5.440924	勉力
-5.440924	勉勵
-5.440924	勉強
-5.440924	勉為其難
-4.109268	勒	-0.3188552
-5.440924	勒令
-5.440924	勒戒
-5.440924	勒斃
-4.064773	勒索	-0.2574665
-5.440924	勒贖
-2.941905	動	-0.4404611
-5.171073	動不動	-0.2121715
-5.440924	動亂
-5.440924	動人
-3.673713	動作	-0.4694777
-5.440924	動力
-5.440924	動向
-5.440924	動員
-5.440924	動員令
-5.440924	動員戡亂
-5.440924	動員戡亂時期
-5.440924	動土
-5.440924	動工
-5.440924	動彈
-5.440924	動彈不得
-5.440924	動怒
-5.440924	動感
-5.440924	動態
-5.440924	動手
-5.440924	動搖
-5.440924	動植物
-5.440924	動機
-5.440924	動武
-5.440924	動物
-5.440924	動物園
-5.440924	動用
-5.440924	動畫
-5.440924	動盪
-5.440924	動盪不安
-5.440924	動聽
-5.440924	動能
-5.440924	動腦
-5.440924	動腦筋
-5.440924	動詞
-5.440924	動議
-5.440924	動輒
-5.440924	動靜
-4.064773	勘	-0.4220924
-5.440924	勘察
-5.440924	勘查
-5.440924	勘測
-5.440924	勘驗
-3.366447	務	-0.4136089
-5.440924	務實
-5.440924	務必
-5.440924	務期
-5.440924	務農
-5.171073	勛	-0.1996817
-3.430202	勝	-0.2931945
-5.440924	勝之不武
-5.440924	勝任
-5.440924	勝利
-5.440924	勝地
-5.440924	勝景
-5.440924	勝算
-5.440924	勝負
-3.430202	勞	-0.492159
-5.440924	勞作
-5.440924	勞保局
-5.440924	勞力
-5.440924	勞動
-5.440924	勞基法
-5.440924	勞委會
-5.440924	勞工
-5.440924	勞工問題
-5.440924	勞工政策
-5.440924	勞工教育
-5.440924	勞役
-5.440924	勞改
-5.440924	勞斯萊斯
-5.440924	勞方
-5.440924	勞民傷財
-5.440924	勞累
-5.440924	勞苦
-5.440924	勞資爭議
-5.440924	勞資關係
-5.440924	勞逸不均
-5.440924	勞頓
-5.440924	勞駕
-3.953463	募	-0.3545732
-5.440924	募捐
-5.440924	募款
-5.440924	募集
-3.261595	勢	-0.4868139
-5.440924	勢利眼
-5.440924	勢力
-5.440924	勢單力薄
-5.440924	勢在必行
-5.440924	勢均力敵
-5.440924	勢必
-5.440924	勢能
-5.440924	勢要
-3.5414	勤	-0.3092282
-5.440924	勤務
-5.440924	勤勞
-5.440924	勤奮
-5.440924	勤快
-5.440924	勤政愛民
-5.171073	勳	-0.1995018
-4.445974	勵	-0.2878444
-3.673713	勸	-0.2610359
-5.440924	勸募
-5.440924	勸告
-5.440924	勸導
-5.440924	勸架
-5.440924	勸止
-5.440924	勸解
-5.440924	勸誘
-5.440924	勸阻
-4.109268	勾	-0.3786223
-5.440924	勾串
-5.440924	勾引
-5.440924	勾結
-4.354573	勿	-0.1970187
-3.401725	包	-0.4844518
-4.354573	包含	-0.4755717
-5.440924	包商
-4.720465	包圍	-0.1860516
-5.440924	包子
-5.440924	包容
-5.440924	包庇
-3.656858	包括	-0.1746777
-5.440924	包月
-5.440924	包羅
-5.440924	包羅萬象
-5.440924	包袱
-5.440924	包裝
-5.440924	包裹
-5.440924	包車
-5.440924	包辦
-5.440924	包銷
-5.440924	匆促
-5.440924	匆匆
-5.171073	匈	-0.2005317
-5.440924	匈牙利
-3.079488	化	-0.4217401
-5.440924	化去
-5.440924	化名
-5.440924	化妝
-5.440924	化妝品
-5.440924	化學
-5.440924	化學武器
-5.440924	化工
-5.440924	化干戈為玉帛
-5.440924	化武
-5.440924	化民
-5.440924	化緣
-5.440924	化解
-5.440924	化身
-5.440924	化驗
-3.2683	北	-0.4851941
-5.440924	北上
-5.28259	北二高	-0.2004087
-5.440924	北京
-5.440924	北人
-5.440924	北區
-5.440924	北大
-5.440924	北宜公路
-5.440924	北投
-5.440924	北方
-5.440924	北歐
-5.440924	北港鎮
-5.440924	北管
-5.440924	北管戲
-5.440924	北辰
-4.445974	北部	-0.182417
-5.440924	北門
-5.440924	北韓
-5.440924	北風
-4.972836	匣	-0.3032926
-4.720465	匪	-0.2021157
-5.440924	匪夷所思
-5.28259	匭	-0.2004014
-3.953463	匯	-0.2607492
-5.440924	匯兌
-5.440924	匯市
-5.440924	匯款
-5.440924	匯率
-5.440924	匯聚
-5.440924	匯集
-5.440924	匱乏
-5.171073	匹	-0.2083841
-5.28259	匾	-0.2125582
-3.041798	區	-0.3725469
-5.440924	區公所
-5.440924	區分
-5.171073	區別	-0.2021571
-5.440924	區劃
-3.748554	區域	-0.3077589
-5.440924	區域網路
-5.440924	區域計畫
-5.440924	區段
-5.440924	區段徵收
-5.440924	區運
-5.440924	區運會
-5.440924	區間
-5.28259	區隔	-0.2000039
-3.125601	十	-0.719193
-5.28259	十一號	-0.1899603
-5.440924	十三點
-5.440924	十之八九
-5.440924	十二指腸潰瘍
-5.440924	十二支
-5.440924	十二時
-5.440924	十二次
-3.516766	十分	-0.2294363
-5.440924	十字
-5.440924	十字架
-5.440924	十字路口
-5.440924	十家
-5.440924	十成
-5.440924	十萬八千里
-5.440924	十足
-3.814587	千	-0.4362576
-5.440924	千仞
-5.440924	千億
-5.440924	千古
-5.440924	千島群島
-5.440924	千年
-5.440924	千戶
-5.440924	千斤
-5.440924	千瘡百孔
-5.440924	千秋萬世
-3.953463	千萬	-0.3890567
-5.440924	千言萬語
-5.440924	千載難逢
-5.440924	千里
-5.440924	千面人
-3.420501	升	-0.4489049
-5.440924	升值
-5.440924	升學
-5.440924	升格
-5.440924	升級
-5.440924	升遷
-5.440924	升降機
-4.445974	升高	-0.3951541
-4.158848	午	-0.3970427
-5.440924	午前
-5.440924	午夜
-5.440924	午夜牛郎
-5.440924	午宴
-5.440924	午餐
-3.310864	半	-0.4210504
-5.440924	半信半疑
-5.440924	半個
-5.440924	半個人
-5.440924	半價
-5.440924	半夜
-5.440924	半夜三更
-5.440924	半大不小
-5.440924	半天
-5.440924	半導體
-5.28259	半徑	-0.2000842
-5.440924	半成品
-5.440924	半截
-5.440924	半數
-5.440924	半月
-5.440924	半死
-5.440924	半球
-5.440924	半票
-5.440924	半空中
-5.440924	半點
-4.720465	卑	-0.1999356
-5.440924	卑南鄉
-4.972836	卒	-0.5207307
-4.972836	卓	-0.1998231
-5.440924	卓別林
-5.440924	卓立
-3.037805	協	-0.8897324
-5.440924	協助
-5.440924	協同
-5.440924	協商
-5.440924	協定
-5.440924	協會
-5.440924	協調
-5.440924	協議
-5.440924	協議書
-5.440924	協辦
-3.229538	南	-0.3568797
-5.440924	南下
-5.440924	南亞
-5.440924	南京
-5.440924	南來北往
-5.440924	南北
-5.440924	南國
-5.440924	南宮
-5.440924	南投縣
-5.440924	南斯拉夫
-5.440924	南方
-5.440924	南榮
-5.440924	南橫
-5.440924	南端
-5.440924	南管
-5.440924	南美
-5.440924	南美洲
-5.440924	南轅北轍
-5.440924	南迴
-5.440924	南部
-5.440924	南部地方
-5.440924	南門
-5.440924	南非
-5.440924	南韓
-4.214827	博	-0.3455466
-5.440924	博取
-4.279103	博士	-0.2182131
-5.440924	博士學位
-5.440924	博得
-5.440924	博愛
-5.171073	博物館	-0.2021571
-4.561885	卜	-0.2321709
-5.440924	卜卦
-4.279103	占	-0.2018958
-5.440924	占卜
-5.440924	占地
-5.440924	占據
-5.440924	占星術
-5.440924	占有
-3.45028	卡	-0.437001
-5.440924	卡司
-5.440924	卡片
-5.440924	卡紙
-5.440924	卡車
-5.28259	卡達	-0.1997119
-5.171073	卦	-0.2988819
-4.720465	卯	-0.3473005
-5.440924	卯勁
-5.440924	卯足全力
-3.34175	印	-0.5828081
-5.440924	印刷機
-5.440924	印尼
-5.440924	印度
-5.440924	印泥
-5.440924	印章
-5.440924	印花稅
-5.440924	印表機
-5.440924	印製
-5.440924	印記
-5.440924	印證
-5.440924	印象
-3.567516	危	-0.7424257
-5.440924	危及
-5.440924	危害
-5.440924	危急
-5.440924	危機
-5.440924	危言聳聽
-3.814587	危險	-0.4204918
-5.440924	危險性
-5.440924	危險物
-5.440924	危難
-3.018373	即	-0.3266773
-4.214827	即使	-0.2249231
-5.440924	即便
-5.440924	即刻
-5.440924	即可
-5.440924	即將
-5.440924	即日
-5.440924	即是
-5.171073	即時	-0.2081944
-5.440924	即興
-4.214827	卷	-0.18154
-5.440924	卷子
-5.440924	卷宗
-5.440924	卷曲
-4.024416	卸	-0.3093885
-5.440924	卸下
-5.440924	卸任
-5.440924	卸貨
-2.91115	卻	-0.3631395
-5.440924	卻不
-5.440924	卻又
-5.440924	卻少
-5.440924	卻是
-5.440924	卻步
-5.440924	卻說
-4.972836	卿	-0.1993008
-5.28259	厘	-0.1899603
-3.791442	厚	-0.3627288
-5.440924	厚利
-5.440924	厚實
-5.440924	厚度
-5.440924	厚待
-5.440924	厚望
-5.440924	厚道
-5.440924	厚重
-5.440924	厚顏
-4.561885	厝	-0.2031839
-3.188296	原	-0.3242179
-5.440924	原主
-4.561885	原住民	-0.1792424
-5.440924	原作
-4.561885	原來	-0.298393
-5.440924	原價
-4.445974	原先	-0.2460257
-3.864941	原則	-0.6322781
-5.440924	原名
-3.769469	原因	-0.51584
-5.440924	原地踏步
-4.561885	原始	-0.2045511
-5.440924	原始林
-5.440924	原始社會
-5.440924	原委
-5.440924	原子彈
-5.440924	原定
-5.440924	原審
-5.440924	原意
-5.440924	原擬
-5.440924	原故
-5.440924	原文書
-5.440924	原料
-5.440924	原是
-5.440924	原有
-5.440924	原木
-3.987492	原本	-0.2098552
-5.440924	原油
-5.440924	原狀
-4.972836	原理	-0.1963386
-5.440924	原由
-5.440924	原稿
-5.440924	原罪
-5.440924	原處
-5.440924	原諒
-5.440924	原貌
-5.28259	原點	-0.1899603
-5.171073	厥	-0.1980391
-5.28259	厭	-0.2000185
-4.720465	厲害	-0.2612688
-5.440924	厲行
-2.996148	去	-0.308272
-5.440924	去世
-5.440924	去住
-5.440924	去函
-5.171073	去向	-0.1883618
-3.656858	去年	-0.2774856
-5.440924	去後
-5.440924	去處
-5.440924	去路
-5.171073	去除	-0.1930031
-3.261595	參	-0.7533516
-3.34175	參加	-0.3707275
-5.440924	參展
-5.440924	參差
-5.440924	參差不齊
-5.440924	參戰
-5.440924	參拜
-5.440924	參政
-5.440924	參數
-5.440924	參照
-3.769469	參考	-0.3749953
-5.440924	參與
-4.064773	參觀	-0.2752751
-5.440924	參謀
-5.440924	參賽
-5.440924	參選
-5.440924	參閱
-2.85811	又	-0.3235035
-4.445974	又是	-0.1919807
-5.440924	又要
-5.171073	叉	-0.2081251
-2.500803	及	-0.1395558
-5.440924	及今
-5.440924	及早
-5.440924	及時
-4.720465	及格	-0.2090307
-3.567516	友	-0.3587009
-5.440924	友人
-5.440924	友善
-5.440924	友好
-5.440924	友誼
-5.440924	友軍
-3.049895	反	-0.5091491
-5.440924	反光
-5.440924	反共
-5.440924	反其道而行
-5.440924	反制
-5.440924	反動
-5.440924	反向
-5.440924	反咬
-5.440924	反問
-5.440924	反壓
-4.561885	反射	-0.3417166
-5.440924	反將
-3.471331	反對	-0.3368111
-5.440924	反對黨
-5.440924	反常
-5.440924	反彈
-5.440924	反感
-3.791442	反應	-0.4065993
-5.440924	反戰
-5.440924	反手
-5.440924	反托拉斯
-5.440924	反抗
-5.440924	反撲
-5.440924	反擊
-5.440924	反攻
-5.440924	反效果
-3.656858	反映	-0.3476616
-5.440924	反核
-5.28259	反正	-0.1977795
-5.440924	反毒
-5.440924	反白
-3.921908	反而	-0.1940451
-5.440924	反芻
-4.720465	反覆	-0.205656
-5.440924	反覆無常
-5.440924	反觀
-5.440924	反轉
-5.440924	反鎖
-5.440924	反面
-5.440924	反駁
-3.092815	取	-0.3529804
-4.354573	取代	-0.2207163
-5.440924	取勝
-5.440924	取名
-5.440924	取向
-3.45028	取得	-0.2006626
-5.440924	取捨
-5.440924	取景
-5.440924	取材
-5.440924	取款
-5.440924	取水
-5.440924	取決
-5.440924	取消
-5.440924	取用
-5.440924	取經
-5.440924	取締
-5.440924	取而代之
-2.954844	受	-0.3346528
-4.561885	受不了	-0.3698008
-3.769469	受傷	-0.4322315
-5.440924	受刑人
-5.440924	受制
-5.440924	受創
-5.440924	受困
-5.440924	受孕
-5.440924	受害
-5.440924	受審
-5.440924	受惠
-5.440924	受挫
-5.440924	受損
-5.440924	受業
-5.440924	受潮
-5.440924	受理
-5.440924	受益
-5.440924	受益費
-5.440924	受罰
-5.440924	受聘
-5.440924	受苦
-5.440924	受虐
-5.440924	受訓
-5.440924	受託
-5.440924	受訪
-5.440924	受賄
-5.440924	受邀
-5.440924	受阻
-5.440924	受限
-5.440924	受難
-5.440924	受騙
-4.158848	叛	-0.4397116
-5.440924	叛亂
-5.440924	叛亂罪
-5.440924	叛國
-5.440924	叛變
-5.440924	叛軍
-5.440924	叢林
-5.440924	叢生
-3.177198	口	-0.3404196
-5.440924	口口聲聲
-5.440924	口吻
-5.440924	口味
-5.440924	口哨
-5.440924	口外
-5.440924	口實
-5.440924	口徑
-5.440924	口惠
-5.440924	口才
-5.440924	口技
-5.440924	口氣
-5.440924	口碑
-5.440924	口紅
-5.440924	口號
-5.171073	口袋	-0.1993931
-5.440924	口角
-5.28259	口音	-0.1899603
-5.440924	口頭
-5.440924	口風
-5.440924	口香糖
-3.528908	古	-0.3112382
-5.440924	古人
-4.972836	古代	-0.1938633
-5.440924	古剎
-5.440924	古坑鄉
-5.440924	古城
-5.440924	古寺
-5.440924	古廟
-5.440924	古意
-5.440924	古法
-4.561885	古老	-0.1922215
-5.440924	古董
-5.440924	古董商
-5.440924	古裝
-5.440924	古蹟
-4.720465	句	-0.1887869
-3.411011	另	-0.4396679
-4.214827	另外	-0.3242705
-5.440924	另有
-5.440924	另結新歡
-5.440924	另行
-5.440924	另起爐灶
-3.303474	只	-0.2855487
-4.561885	只在	-0.2360481
-3.987492	只好	-0.1979827
-5.440924	只待
-5.440924	只得
-5.440924	只怕
-5.440924	只教
-3.460678	只是	-0.3923131
-4.720465	只會	-0.2008642
-3.528908	只有	-0.2785081
-5.440924	只消
-3.864941	只能	-0.2053324
-3.921908	只要	-0.2947951
-5.440924	只見
-5.440924	只顧
-3.440125	叫	-0.3378805
-5.440924	叫做
-5.440924	叫停
-5.440924	叫喊
-5.440924	叫囂
-5.440924	叫好
-5.440924	叫屈
-5.440924	叫罵
-5.440924	叫聲
-5.440924	叫苦
-5.440924	叫苦連天
-5.440924	叫車
-5.440924	叫醒
-3.440125	召	-0.8111024
-5.440924	召募
-5.440924	召回
-5.440924	召見
-5.440924	召開
-5.440924	召集
-5.440924	召集人
-5.440924	召集令
-5.440924	叮噹
-2.755597	可	-0.3387432
-5.440924	可不
-5.440924	可不是
-5.440924	可也
-3.14551	可以	-0.2593092
-5.440924	可作
-5.440924	可信
-5.440924	可加
-5.440924	可取
-5.28259	可可	-0.2006347
-5.440924	可否
-5.440924	可喜可賀
-5.440924	可圈可點
-5.440924	可塑性
-5.440924	可好
-5.171073	可就	-0.2000978
-5.440924	可怕
-4.972836	可惜	-0.1873665
-4.972836	可想而知	-0.1878874
-5.440924	可愛
-5.440924	可感
-5.440924	可憐
-4.720465	可是	-0.1912387
-5.440924	可有可無
-5.440924	可望
-5.440924	可樂
-5.440924	可疑
-5.440924	可知
-5.440924	可知道
-5.440924	可笑
-3.205494	可能	-0.2943788
-4.354573	可能性	-0.362719
-4.561885	可行	-0.2189234
-5.440924	可見
-5.440924	可見一斑
-5.440924	可觀
-5.440924	可言
-5.440924	可謂
-5.440924	可議
-5.440924	可貴
-4.354573	可靠	-0.4656704
-2.842623	台	-0.6235021
-3.748554	史	-0.2097197
-5.440924	史不絕書
-5.440924	史奴比
-5.440924	史密斯
-5.440924	史料
-5.440924	史詩
-5.440924	史達林
-3.656858	右	-0.3079607
-5.440924	右側
-5.440924	右手
-5.440924	右方
-5.440924	右派
-5.28259	右邊	-0.2003468
-3.383728	司	-0.5538836
-5.440924	司令
-5.440924	司成
-5.440924	司機
-5.440924	司法
-5.440924	司法機關
-5.440924	司法獨立
-5.440924	司法警察
-5.440924	司法院
-5.440924	司空見慣
-5.440924	司長
-5.440924	司馬光
-3.358057	吃	-0.3369733
-5.440924	吃不了兜著走
-5.440924	吃不完兜著走
-5.440924	吃不消
-5.440924	吃力
-5.440924	吃力不討好
-5.440924	吃吃喝喝
-5.440924	吃得
-5.440924	吃火鍋
-5.440924	吃緊
-5.440924	吃貨
-5.440924	吃重
-5.440924	吃閉門羹
-5.440924	吃飯
-5.440924	吃驚
-2.832597	各	-0.4818138
-5.440924	各人
-4.561885	各位	-0.1965556
-5.440924	各個
-5.440924	各國
-5.440924	各執一詞
-5.440924	各式
-5.440924	各式各樣
-5.440924	各持己見
-5.440924	各界
-5.440924	各界人士
-5.440924	各省
-3.748554	各種	-0.2230625
-4.354573	各自	-0.1959974
-5.440924	各自為政
-5.440924	各處
-5.440924	各行各業
-5.440924	各說各話
-5.440924	各路
-5.440924	各項
-5.440924	各類
-3.261595	合	-0.4283009
-3.624991	合作	-0.5483096
-5.440924	合作社
-5.440924	合作金庫
-5.440924	合併
-5.440924	合力
-5.440924	合唱
-5.440924	合唱團
-5.440924	合夥
-5.440924	合夥人
-5.440924	合宜
-5.440924	合影
-5.171073	合成	-0.5721697
-5.440924	合抱
-5.440924	合時宜
-5.440924	合格
-5.440924	合歡
-3.953463	合法	-0.2466816
-4.972836	合法化	-0.2575313
-5.440924	合流
-3.921908	合理	-0.3943818
-5.440924	合理化
-5.440924	合約
-5.440924	合纖
-5.440924	合聲
-5.440924	合計
-5.440924	合議制
-5.440924	合議庭
-5.440924	合資
-4.561885	合適	-0.2888719
-3.528908	吉	-0.3082281
-5.440924	吉他
-5.440924	吉安鄉
-5.440924	吉時
-5.440924	吉普賽
-5.440924	吉林
-5.440924	吉祥
-5.440924	吉祥如意
-5.440924	吉達
-5.440924	吉隆坡
-4.109268	吊	-0.2530838
-5.440924	吊扇
-5.440924	吊車
-5.440924	吊銷
-4.720465	吋	-0.3592835
-2.96818	同	-0.4665896
-3.987492	同一	-0.3246922
-5.440924	同事
-5.440924	同仁
-5.440924	同伴
-5.440924	同僚
-5.440924	同參
-5.440924	同名之累
-5.440924	同夥
-4.214827	同學	-0.4240934
-5.440924	同居
-5.440924	同年
-5.440924	同心
-5.440924	同心協力
-5.440924	同志
-5.440924	同性戀
-5.440924	同情
-5.440924	同情心
-5.440924	同意
-5.440924	同意書
-5.440924	同感
-5.440924	同文
-3.516766	同時	-0.3643352
-5.440924	同期
-5.440924	同案
-5.440924	同業
-5.440924	同樂
-4.158848	同樣	-0.2711592
-4.158848	同步	-0.2031927
-5.440924	同治
-5.440924	同班
-5.440924	同種
-5.440924	同窗
-5.440924	同級
-5.440924	同義詞
-5.440924	同胞
-5.440924	同行
-5.440924	同袍
-5.440924	同軸電纜
-5.440924	同鄉
-5.440924	同鄉會
-5.440924	同類
-2.954844	名	-0.3695182
-5.440924	名下
-5.440924	名主
-5.440924	名人
-5.440924	名兒
-5.440924	名冊
-5.440924	名列前茅
-5.440924	名利
-5.440924	名副其實
-5.440924	名勝
-5.440924	名勝古跡
-5.440924	名單
-5.440924	名堂
-5.440924	名妓
-4.720465	名字	-0.1878805
-5.440924	名存實亡
-5.440924	名家
-5.440924	名將
-5.440924	名山
-5.440924	名師
-5.440924	名次
-5.440924	名氣
-5.440924	名片
-5.440924	名目
-5.440924	名稱
-5.440924	名義
-5.440924	名聲
-4.561885	名詞	-0.2196491
-5.440924	名譽
-5.440924	名醫
-5.440924	名額
-5.440924	后座
-5.440924	后里
-4.214827	吐	-0.3066593
-5.440924	吐氣
-5.440924	吐露
-2.815589	向	-0.2540839
-5.440924	向上
-5.440924	向來
-5.171073	向前	-0.1994991
-5.440924	向化
-4.972836	向外	-0.2070089
-5.440924	向後
-5.440924	向心力
-5.28259	向量	-0.1899603
-4.064773	君	-0.2554853
-5.440924	君子
-5.440924	君山
-5.171073	吝	-0.3754417
-4.354573	吞	-0.2448612
-5.440924	吞噬
-5.440924	吞嚥
-5.171073	吟	-0.2003859
-5.440924	吟詠
-5.28259	吠	-0.1899603
-3.609894	否	-0.6005468
-5.28259	否則	-0.2829722
-5.440924	否定
-5.440924	否決
-5.440924	否決權
-5.440924	否認
-3.953463	吧	-1.122791
-4.064773	含	-0.3944904
-5.440924	含冤
-5.440924	含意
-5.440924	含括
-4.354573	含有	-0.194263
-5.440924	含糊
-5.440924	含量
-5.28259	吱	-0.2006675
-3.326032	吳	-0.3720912
-5.440924	吳下阿蒙
-5.440924	吳國
-5.440924	吳昌碩
-4.279103	吵	-0.3514883
-5.440924	吵吵鬧鬧
-5.440924	吵嘴
-5.171073	吵架	-0.2021571
-5.28259	吵雜	-0.1899603
-5.440924	吵鬧
-3.349827	吸	-0.9545695
-5.440924	吸引
-5.440924	吸引力
-4.158848	吸收	-0.1948693
-5.440924	吸毒
-5.440924	吸膠
-5.440924	吸食
-4.354573	吹	-0.1834315
-5.440924	吹噓
-5.440924	吹拂
-5.440924	吹牛
-5.440924	吹襲
-4.445974	吻	-0.2202352
-5.440924	吻合
-4.561885	吼	-0.1972377
-5.440924	吼叫
-4.561885	吾	-0.1992037
-5.440924	吾愛
-5.440924	吾輩
-4.720465	呀	-0.4238206
-4.214827	呂	-0.2887558
-5.171073	呆	-0.1894997
-3.567516	呈	-0.2357132
-5.440924	呈上
-5.440924	呈報
-3.609894	呈現	-0.2085463
-3.296208	告	-0.331384
-5.440924	告一段落
-5.440924	告人
-5.440924	告別
-5.440924	告急
-5.440924	告狀
-5.440924	告發
-5.440924	告知
-5.440924	告示
-5.440924	告罄
-3.709524	告訴	-0.3948416
-5.440924	告貸無門
-4.972836	呎	-0.2274679
-3.45028	呢	-1.673019
-3.528908	周	-0.3029692
-5.440924	周全
-5.440924	周密
-5.440924	周年
-5.440924	周延
-5.440924	周旋
-5.440924	周旋到底
-5.440924	周書
-5.440924	周轉
-5.440924	周遊
-5.440924	周遭
-5.440924	周邊
-3.673713	味	-0.4679092
-5.440924	味蕾
-4.720465	味道	-0.3829206
-5.440924	呵呵大笑
-5.28259	呻	-0.2006692
-3.987492	呼	-0.323136
-5.440924	呼之欲出
-5.440924	呼叫
-5.440924	呼叫器
-5.440924	呼吸
-5.28259	呼呼	-0.2002337
-5.440924	呼嘯
-5.171073	呼應	-0.1833482
-5.440924	呼救
-3.987492	呼籲	-0.2609037
-5.440924	呼聲
-3.275111	命	-0.482915
-5.440924	命中
-5.440924	命中率
-5.440924	命令
-5.440924	命名
-5.440924	命案
-5.440924	命脈
-5.440924	命運
-5.28259	命題	-0.2004014
-5.440924	咄咄逼人
-5.440924	咆哮
-2.610519	和	-0.197131
-5.440924	和一
-5.440924	和事佬
-5.440924	和南
-5.440924	和同
-5.440924	和善
-5.440924	和好
-5.440924	和尚
-3.748554	和平	-0.1876987
-5.440924	和平主義
-5.440924	和平日
-5.440924	和文
-5.440924	和林
-5.440924	和樂
-5.440924	和氣
-5.440924	和約
-5.440924	和緩
-5.440924	和解
-5.440924	和談
-5.440924	和諧
-5.440924	咒罵
-5.440924	咖啡
-5.440924	咖啡因
-5.440924	咖啡店
-5.171073	咩	-0.2005115
-4.279103	咬	-0.1992381
-5.440924	咬住
-5.440924	咬文嚼字
-5.440924	咬緊
-5.440924	咬耳朵
-5.28259	咱	-0.1989335
-4.720465	咸	-0.2409914
-5.440924	咸豐
-4.214827	哀	-0.2596269
-5.440924	哀傷
-5.440924	哀怨
-5.440924	哀悼
-5.440924	哀戚
-5.440924	哀求
-5.440924	哀痛
-5.440924	哀的美敦書
-3.205494	品	-0.540666
-5.440924	品名
-5.440924	品味
-5.440924	品嘗
-5.440924	品嚐
-5.440924	品德
-5.440924	品格
-5.440924	品牌
-5.440924	品種
-5.440924	品管
-5.440924	品質
-4.972836	哄	-0.1992889
-5.440924	哄抬
-4.561885	哈	-0.2047292
-5.440924	哈維
-5.440924	哉
-3.007118	員	-0.4173363
-5.440924	員工
-5.440924	員林鎮
-5.440924	員警
-5.440924	員額
-3.987492	哥	-0.3287178
-5.440924	哥倫比亞
-5.440924	哥哥
-4.720465	哨	-0.3654425
-4.972836	哩	-0.1903365
-4.279103	哪	-0.2717375
-4.279103	哭	-0.1866047
-5.440924	哭笑不得
-5.440924	哭訴
-5.440924	哭鬧
-4.158848	哲	-0.2961871
-5.440924	哲夫
-5.440924	哲學
-5.28259	哳	-0.3093158
-5.440924	哼唱
-5.440924	哽咽
-5.440924	唆使
-5.171073	唇	-0.1899518
-5.28259	唏	-0.212866
-4.445974	唐	-0.2843711
-5.440924	唐山
-3.673713	售	-0.3461588
-5.440924	售價
-5.440924	售出
-5.440924	售後服務
-5.440924	售票
-4.158848	唯	-0.2930795
-4.158848	唯一	-0.2440081
-5.440924	唯恐
-4.445974	唯有	-0.2705496
-5.440924	唯獨
-5.440924	唯讀記憶體
-3.471331	唱	-0.3190382
-5.440924	唱作俱佳
-5.440924	唱歌
-5.440924	唱片
-5.440924	唱的
-5.440924	唱盤
-5.440924	唱高調
-4.354573	唸	-0.2248623
-5.440924	唸唸有詞
-4.972836	唸書	-0.175512
-5.28259	啁啾	-0.2001279
-5.440924	啄食
-3.115978	商	-0.3491772
-5.440924	商事
-5.440924	商人
-5.440924	商務
-5.440924	商務仲裁
-5.440924	商品
-5.440924	商品檢驗
-5.440924	商圈
-5.440924	商場
-5.440924	商家
-5.440924	商店
-5.440924	商會
-4.064773	商業	-0.2589292
-5.440924	商業區
-5.440924	商業設計
-5.440924	商業銀行
-5.440924	商榷
-5.440924	商港
-5.440924	商船
-5.440924	商號
-5.440924	商討
-5.440924	商談
-5.440924	商議
-5.440924	商販
-5.440924	商隊
-4.972836	啊	-0.2988819
-3.554262	問	-0.3510903
-5.440924	問世
-5.440924	問候
-5.440924	問卷
-5.440924	問卷調查
-5.440924	問好
-5.440924	問心無愧
-5.440924	問政
-5.440924	問答
-5.440924	問話
-2.964807	問題	-0.6945052
-5.171073	啞	-0.2412014
-3.640632	啟	-0.3459176
-5.440924	啟動
-5.440924	啟動程式
-5.440924	啟封
-5.440924	啟智
-5.440924	啟用
-5.440924	啟蒙
-5.440924	啟蒙運動
-5.171073	啤	-0.2127112
-5.440924	啤酒
-4.445974	啦	-0.4294926
-5.28259	喀	-0.2005837
-3.567516	善	-0.321846
-5.440924	善人
-5.440924	善後
-5.440924	善意
-5.440924	善於
-5.440924	善用
-5.440924	善男信女
-5.440924	善罷干休
-5.440924	善良
-4.561885	喇叭	-0.7082275
-4.720465	喉	-0.2263613
-5.440924	喉嚨
-5.440924	喉結
-3.987492	喊	-0.2121057
-5.440924	喊聲
-5.440924	喊話
-5.171073	喋	-0.212755
-5.28259	喔	-0.2988819
-4.972836	喘	-0.2022589
-5.440924	喘不過氣來
-4.354573	喚	-0.2521461
-5.440924	喚起
-3.581188	喜	-0.3183525
-5.440924	喜出望外
-5.440924	喜劇
-5.440924	喜好
-5.440924	喜孜孜
-5.440924	喜宴
-5.440924	喜悅
-5.440924	喜愛
-5.440924	喜慶
-3.953463	喜歡	-0.2417043
-5.440924	喜氣
-5.440924	喜訊
-3.728601	喝	-0.4533933
-5.440924	喝令
-5.440924	喝茶
-5.440924	喟嘆
-4.972836	喧	-0.2005671
-5.440924	喧囂
-5.440924	喧擾
-3.69125	喪	-0.4065627
-5.440924	喪事
-5.440924	喪失
-5.440924	喪家
-5.440924	喪生
-5.440924	喪禮
-4.561885	喬	-0.3218966
-5.440924	喬木
-5.440924	喬裝
-3.375001	單	-0.2979877
-4.720465	單一	-0.3168006
-3.28203	單位	-0.2412525
-5.440924	單向
-5.440924	單單
-5.440924	單打
-5.440924	單挑
-5.440924	單方面
-5.440924	單日
-5.440924	單槍匹馬
-4.354573	單獨	-0.2329726
-4.109268	單純	-0.349208
-5.440924	單線
-5.440924	單色
-5.440924	單薄
-5.440924	單行本
-5.440924	單行道
-5.440924	單身
-5.440924	單身貴族
-5.440924	單車
-5.440924	單項
-4.720465	喻	-0.1942327
-5.171073	嗅	-0.1993347
-3.504954	嗎	-1.291165
-5.440924	嗎啡
-4.972836	嗜	-0.2082346
-5.440924	嗜好
-5.171073	嗯	-0.2006645
-4.354573	嘆	-0.5249183
-5.440924	嘆息
-5.440924	嘆為觀止
-3.528908	嘉	-0.3842984
-5.440924	嘉勉
-5.440924	嘉南平原
-5.440924	嘉惠
-5.440924	嘉慶
-5.440924	嘉獎
-5.440924	嘉義
-5.440924	嘉義市
-5.440924	嘉義縣
-5.440924	嘉興
-5.440924	嘉許
-4.972836	嘎	-0.2086866
-5.440924	嘎啦
-5.440924	嘔吐
-5.440924	嘔啞
-4.445974	嘗	-0.3316856
-5.440924	嘗試
-4.445974	嘛	-0.1933822
-5.440924	嘩啦
-5.440924	嘮叨
-5.28259	嘰	-0.2006675
-5.440924	嘲諷
-5.440924	嘲謔
-4.445974	嘴	-0.1965009
-5.28259	嘴巴	-0.1899603
-5.440924	嘴臉
-5.171073	噁	-0.212219
-5.171073	噓	-0.1980564
-3.349827	器	-0.5290028
-5.440924	器具
-5.440924	器官
-5.440924	器材
-5.440924	器質
-5.440924	器重
-5.440924	噩夢
-5.440924	噩運
-5.440924	噪音
-5.440924	噱頭
-3.987492	噴	-0.4313044
-5.440924	噴射
-5.440924	噴霧器
-4.561885	噸	-0.3456982
-5.440924	噸位
-4.445974	嚇	-0.352742
-5.28259	嚎	-0.2003942
-4.279103	嚐	-0.201081
-5.440924	嚮往
-3.45028	嚴	-0.5339851
-5.440924	嚴厲
-5.440924	嚴守
-5.440924	嚴密
-5.440924	嚴格
-5.440924	嚴正
-5.440924	嚴肅
-5.171073	嚴謹	-0.2021571
-5.440924	嚴辦
-3.358057	嚴重	-0.417411
-5.440924	嚴防
-4.561885	囂	-0.2513958
-5.440924	囂張
-5.440924	囊括
-5.171073	囑	-0.1990861
-5.440924	囑託
-2.868751	四	-0.4675745
-5.440924	四七
-5.440924	四健會
-5.440924	四六
-5.440924	四周
-5.440924	四大
-5.440924	四季
-5.440924	四平八穩
-5.440924	四強
-5.440924	四星
-5.440924	四時
-3.987492	四月	-0.2717227
-5.440924	四海一家
-5.440924	四節
-5.440924	四至
-5.440924	四處
-5.440924	四起
-5.440924	四部
-5.440924	四面
-5.440924	四面八方
-5.28259	囝	-0.2006493
-2.975005	回	-0.4134309
-5.440924	回事
-3.864941	回來	-0.3484029
-5.440924	回函
-5.440924	回升
-4.720465	回去	-0.233741
-5.440924	回合
-5.440924	回國
-5.440924	回報
-5.440924	回天
-5.440924	回天乏術
-5.440924	回娘家
-5.440924	回家
-5.440924	回復
-5.28259	回想	-0.2000112
-4.720465	回憶	-0.1810719
-4.445974	回應	-0.3560385
-5.440924	回擊
-5.440924	回收
-5.440924	回教
-5.440924	回教徒
-5.440924	回曆
-5.440924	回檔
-5.440924	回歸
-5.440924	回生乏術
-5.440924	回程
-4.720465	回答	-0.1995873
-5.440924	回籠
-5.440924	回覆
-5.440924	回跌
-5.440924	回部
-5.440924	回電
-5.440924	回音
-5.440924	回響
-4.561885	回頭	-0.1890965
-5.440924	回頭是岸
-5.440924	回饋
-5.28259	囟	-0.2003942
-2.917129	因	-0.208429
-5.440924	因人
-5.440924	因公殉職
-5.440924	因子
-3.921908	因應	-0.2433412
-5.440924	因應措施
-5.440924	因材施教
-5.440924	因果關係
-3.624991	因此	-0.2362693
-3.709524	因為	-0.2816674
-3.748554	因素	-0.5611928
-5.440924	因緣際會
-5.440924	因而
-5.440924	因頭
-4.445974	囤	-0.3175391
-5.440924	囤積
-5.440924	囤聚
-5.171073	囪	-0.1898771
-5.28259	囫圇	-0.2128497
-3.656858	困	-0.6034281
-5.440924	困境
-5.440924	困局
-5.440924	困擾
-5.440924	困苦
-3.769469	困難	-0.8144385
-5.440924	困頓
-5.440924	囹圄
-3.921908	固	-0.4964767
-5.440924	固執
-5.440924	固守
-3.987492	固定	-0.2075856
-5.440924	固態
-5.440924	固有
-5.440924	固然
-5.171073	囿	-0.2120146
-3.769469	圈	-0.3948866
-5.440924	圈內
-5.440924	圈圈
-5.440924	圈套
-2.692004	國	-0.4304067
-5.440924	國中
-5.440924	國主
-5.440924	國事
-3.640632	國人	-0.3483224
-5.440924	國代
-5.440924	國信
-5.440924	國光
-5.440924	國光號
-3.289061	國內	-0.2294832
-5.440924	國別
-5.440924	國劇
-5.440924	國力
-5.440924	國務卿
-5.440924	國務院
-5.440924	國土
-3.953463	國外	-0.1883392
-5.440924	國大
-5.440924	國大代表
-5.440924	國太
-5.440924	國宅
-5.440924	國安局
-5.440924	國安法
-5.440924	國定假日
-3.358057	國家	-0.3393513
-5.440924	國家公園
-5.440924	國家劇院
-5.440924	國家安全局
-5.440924	國家安全會議
-5.440924	國家建設
-5.440924	國家考試
-5.440924	國家資訊基礎建設
-5.440924	國家賠償
-5.440924	國寶
-5.440924	國小
-5.440924	國度
-5.440924	國庫
-5.440924	國庫券
-5.440924	國建
-5.440924	國建六年計畫
-5.440924	國慶日
-5.440924	國手
-5.440924	國教
-5.440924	國文
-5.440924	國旗
-5.440924	國是
-5.440924	國會
-5.440924	國有
-5.440924	國有財產
-5.440924	國格
-5.440924	國樂
-5.440924	國民
-5.440924	國民大會
-5.440924	國民所得
-5.440924	國民生產毛額
-5.440924	國泰民安
-5.440924	國營
-5.440924	國營事業
-5.440924	國片
-5.440924	國王
-5.440924	國產
-5.440924	國產車
-5.440924	國科會
-5.440924	國稅局
-4.561885	國立	-0.2060363
-5.440924	國立編譯館
-5.440924	國策
-5.440924	國策顧問
-5.440924	國籍
-5.440924	國粹
-5.440924	國統會
-5.440924	國統綱領
-5.440924	國聯
-5.440924	國能
-5.440924	國華
-4.445974	國語	-0.3132243
-5.440924	國貿局
-5.440924	國賓
-5.440924	國軍
-5.440924	國道
-5.440924	國都
-5.440924	國防
-5.440924	國防部
-3.296208	國際	-0.2279971
-5.440924	國際人
-5.440924	國際勞工組織
-5.440924	國際化
-5.440924	國際性
-5.440924	國際標
-5.440924	國際法
-5.440924	國際法庭
-5.440924	國際法院
-5.440924	國際貨幣基金
-5.440924	國體
-3.673713	圍	-0.4166157
-5.440924	圍剿
-5.440924	圍堵
-5.440924	圍巾
-5.440924	圍捕
-4.354573	圍牆	-0.1985859
-5.440924	圍獵
-5.440924	圍籬
-5.440924	圍觀
-3.656858	園	-0.3049975
-5.440924	園區
-5.440924	園地
-3.673713	圓	-0.4273497
-5.440924	圓寂
-5.440924	圓山
-5.440924	圓形
-5.440924	圓滿
-5.440924	圓熟
-5.440924	圓環
-5.440924	圓融
-5.440924	圓通
-5.440924	圓雕
-3.275111	圖	-0.490499
-5.440924	圖像
-5.440924	圖利
-5.440924	圖形
-5.440924	圖形加速卡
-5.440924	圖文
-5.440924	圖文並茂
-4.720465	圖書館	-0.3905429
-5.440924	圖案
-5.440924	圖片
-5.28259	圖畫	-0.2005545
-5.440924	圖示
-5.440924	圖紋
-5.440924	圖表
-5.440924	圖解
-5.440924	圖謀
-5.440924	圖騰
-3.366447	團	-0.3548417
-5.440924	團員
-5.440924	團拜
-5.440924	團管區
-5.440924	團結
-5.440924	團聚
-5.440924	團長
-5.28259	團隊	-0.2127659
-5.440924	團隊精神
-3.656858	團體	-0.2892404
-3.528908	土	-0.3051886
-5.440924	土丘
-3.528908	土地	-0.3726912
-4.972836	土地公	-0.193677
-5.440924	土地增值稅
-5.440924	土地所有權
-5.440924	土地所有權狀
-5.440924	土城
-5.440924	土堆
-5.440924	土壤
-5.440924	土庫
-5.440924	土庫鎮
-5.440924	土木工程
-5.440924	土狗
-5.440924	土石
-4.972836	土耳其	-0.1992101
-5.440924	土著
-5.440924	土製
-5.440924	土雞
-2.260545	在	-0.1878439
-4.158848	在下	-0.1910092
-5.440924	在世
-5.440924	在乎
-5.440924	在任
-5.440924	在先
-5.440924	在內
-5.440924	在劫難逃
-5.440924	在即
-4.972836	在在	-0.1976484
-5.440924	在城
-5.440924	在場
-5.440924	在外
-5.440924	在家
-5.440924	在心
-5.440924	在意
-5.440924	在押
-4.109268	在於	-0.1933677
-5.440924	在日
-5.440924	在望
-5.440924	在朝
-5.440924	在案
-5.440924	在職
-5.440924	在行
-5.440924	在逃
-5.440924	在野
-5.440924	在野黨
-5.440924	在陳
-5.28259	圭	-0.1995502
-2.610519	地	-0.4066798
-4.158848	地上	-0.331229
-5.440924	地上物
-5.440924	地下
-5.440924	地下停車場
-5.440924	地下化
-5.440924	地下室
-5.440924	地下有知
-5.440924	地下水
-5.440924	地下的
-5.440924	地下經濟
-5.440924	地下舞廳
-5.440924	地下道
-5.440924	地主
-5.440924	地主之誼
-5.440924	地位
-5.440924	地價
-5.440924	地價稅
-5.440924	地分
-5.440924	地利
-5.440924	地利之便
-5.440924	地動
-5.440924	地勢
-5.440924	地勤
-3.326032	地區	-0.2871414
-5.440924	地址
-5.440924	地域
-5.440924	地域性
-5.440924	地大物博
-5.440924	地層下陷
-5.440924	地帶
-5.440924	地形
-5.440924	地心引力
-5.440924	地政
-3.303474	地方	-0.3528397
-5.440924	地方上
-5.440924	地方人士
-5.440924	地方政府
-5.440924	地方法院
-5.440924	地方稅
-5.440924	地方自治
-5.440924	地方議會
-5.440924	地板
-5.440924	地檢署
-5.440924	地權
-5.440924	地步
-5.440924	地段
-5.440924	地殼
-5.440924	地毯
-5.440924	地獄
-5.440924	地球
-5.440924	地球村
-5.440924	地理
-5.440924	地理環境
-5.440924	地產
-5.440924	地盤
-5.440924	地目
-5.440924	地籍
-5.440924	地緣
-5.440924	地質
-5.440924	地震
-5.440924	地震帶
-5.440924	地面
-3.567516	地點	-0.3323931
-4.279103	圳	-0.191009
-4.158848	址	-0.3608898
-2.932447	均	-0.3943058
-5.440924	均一
-5.440924	均分
-5.440924	均勻
-5.440924	均可
-5.440924	均富
-5.440924	均攤
-5.440924	均衡
-4.279103	坊	-0.2863809
-5.440924	坊間
-4.279103	坍	-0.2217601
-5.440924	坍方
-5.440924	坍毀
-5.440924	坎坷
-5.440924	坎培拉
-3.516766	坐	-0.3539461
-5.440924	坐下
-5.440924	坐享其成
-5.440924	坐位
-5.440924	坐地
-5.440924	坐地分贓
-5.440924	坐大
-5.440924	坐收漁利
-5.440924	坐月子
-5.440924	坐牢
-5.440924	坐立不安
-5.440924	坐落
-5.440924	坐視
-5.440924	坐鎮
-4.445974	坑	-0.212238
-5.440924	坑洞
-4.354573	坡	-0.2126352
-5.440924	坡度
-4.214827	坤	-0.2204869
-3.640632	坦	-0.6606488
-5.440924	坦克
-5.440924	坦承
-5.440924	坦然
-5.440924	坦率
-5.440924	坦白
-5.440924	坦誠
-3.987492	坪	-0.3293111
-5.440924	坪林
-5.171073	垂	-0.2085445
-5.171073	垂直	-0.4850487
-3.471331	垃圾	-0.4139733
-5.440924	垃圾場
-5.440924	垃圾桶
-5.440924	垃圾焚化爐
-5.440924	垃圾車
-5.440924	垃圾量
-3.45028	型	-0.4372887
-5.440924	型式
-3.839034	型態	-0.4291291
-5.440924	型鋼
-5.28259	垓	-0.1994745
-5.28259	垢	-0.2004999
-5.171073	垣	-0.1893202
-5.171073	垮	-0.1878245
-5.28259	埃及	-0.1899603
-3.839034	埋	-0.4861969
-5.440924	埋伏
-5.440924	埋名
-5.440924	埋怨
-5.440924	埋設
-5.440924	埋首
-3.595304	城	-0.2274498
-5.440924	城中
-5.440924	城堡
-4.279103	城市	-0.20288
-5.440924	城鄉
-5.440924	城鎮
-5.440924	城隍廟
-4.109268	埔	-0.1933537
-5.440924	埔心鄉
-5.440924	埔里鎮
-4.158848	域	-0.294147
-4.561885	埠	-0.1992104
-5.171073	埤	-0.2000431
-5.440924	埤頭鄉
-5.28259	埧	-0.2003249
-3.366447	執	-0.5871266
-5.440924	執勤
-5.440924	執導
-5.440924	執意
-5.440924	執掌
-5.440924	執政
-5.440924	執政黨
-5.440924	執業
-5.440924	執法
-5.440924	執照
-5.440924	執筆
-5.440924	執著
-3.254991	執行	-0.369522
-5.440924	執行機關
-4.024416	培	-0.2984091
-5.440924	培育
-5.440924	培訓
-4.109268	培養	-0.2524272
-5.440924	培養土
-3.188296	基	-0.8246738
-5.440924	基地
-5.440924	基層
-5.440924	基層建設
-5.440924	基座
-5.440924	基於
-4.024416	基本	-0.4179228
-5.171073	基本上	-0.2752846
-5.440924	基準
-5.440924	基督
-5.440924	基督教
-5.440924	基督教兒童基金會
-5.440924	基石
-3.921908	基礎	-0.5786808
-5.440924	基調
-5.440924	基金
-5.440924	基金會
-5.440924	基隆市
-5.440924	基隆河
-5.171073	堀	-0.199981
-3.656858	堂	-0.3009489
-5.440924	堂上
-5.440924	堂兄
-5.440924	堂堂
-3.383728	堅	-0.5634262
-5.440924	堅信
-5.440924	堅固
-5.440924	堅守
-5.440924	堅定
-5.440924	堅實
-5.440924	堅強
-5.440924	堅持
-5.440924	堅決
-5.440924	堅硬
-5.440924	堅稱
-5.440924	堅請
-5.440924	堅韌
-4.109268	堆	-0.1935493
-5.440924	堆滿
-5.440924	堆積
-5.440924	堆置
-5.440924	堆肥
-4.445974	堤	-0.2617015
-5.440924	堤岸
-5.440924	堤防
-3.987492	堪	-0.3228396
-5.440924	堪稱
-5.440924	堪虞
-5.171073	堯	-0.1899368
-5.28259	堰	-0.1897015
-3.010838	報	-0.4648449
-5.440924	報人
-5.440924	報仇
-5.440924	報備
-5.440924	報償
-5.440924	報刊
-5.440924	報到
-5.440924	報名
-3.504954	報告	-0.3791649
-5.440924	報告書
-3.709524	報導	-0.5472409
-5.440924	報導攝影
-5.440924	報廢
-5.440924	報復
-5.440924	報案
-5.440924	報社
-5.440924	報稱
-5.440924	報紙
-5.440924	報考
-5.440924	報表
-5.440924	報請
-5.440924	報警
-5.440924	報酬
-5.440924	報銷
-2.978458	場	-0.3721424
-5.440924	場內
-5.440924	場合
-5.440924	場地
-5.440924	場外交易
-5.440924	場所
-5.440924	場景
-5.440924	場面
-4.445974	堵	-0.2284754
-4.064773	塊	-0.2236316
-4.972836	塌	-0.2880796
-3.921908	塑	-0.3024179
-5.440924	塑膠
-5.440924	塑膠布
-5.440924	塑膠袋
-5.440924	塑造
-4.064773	塔	-0.246035
-5.440924	塔斯社
-3.987492	塗	-0.2710005
-5.440924	塗抹
-5.440924	塗改
-3.892491	塞	-0.242009
-5.440924	塞滿
-5.440924	塞車
-3.769469	填	-0.35241
-5.440924	填充
-5.440924	填寫
-5.28259	填滿	-0.2005472
-5.440924	填補
-5.171073	塭	-0.1948809
-5.440924	塵埃落定
-5.440924	塵封
-3.567516	境	-0.488735
-5.440924	境內
-5.440924	境地
-5.440924	境界
-4.109268	墊	-0.3152074
-5.440924	墊付
-5.440924	墊檔
-5.440924	墊款
-4.279103	墓	-0.2130831
-5.440924	墓園
-5.440924	墓地
-3.261595	增	-0.5102966
-5.440924	增值
-5.440924	增列
-3.289061	增加	-0.3382169
-5.440924	增多
-5.440924	增建
-5.440924	增強
-5.440924	增添
-5.440924	增益
-5.440924	增聘
-5.440924	增訂
-5.440924	增設
-5.440924	增資
-5.440924	增進
-5.440924	增長
-5.440924	增闢
-5.440924	增額國代
-5.440924	增高
-5.28259	墟	-0.3091736
-4.109268	墨	-0.3492253
-5.440924	墨客
-5.440924	墨水
-5.440924	墨水匣
-5.440924	墨跡
-5.440924	墨黑
-5.171073	墩	-0.208457
-4.024416	墬	-0.2261567
-5.440924	墮落
-4.445974	墾	-0.2744509
-5.440924	墾丁國家公園
-5.440924	墾殖
-4.445974	壁	-0.216346
-5.440924	壁報
-4.720465	壅	-0.2796388
-5.440924	壅塞
-4.279103	壇	-0.2415051
-3.33382	壓	-0.5827779
-5.171073	壓低	-0.2021571
-5.440924	壓倒性
-5.440924	壓制
-5.440924	壓力
-5.440924	壓抑
-5.440924	壓縮
-5.440924	壓花
-5.440924	壓迫
-5.440924	壓迫感
-5.440924	壓陣
-3.748554	壞	-0.3076795
-5.440924	壞了
-5.440924	壞事
-5.440924	壞人
-5.440924	壟斷
-5.28259	壢	-0.2602236
-5.171073	壤	-0.1893838
-3.516766	士	-0.3793275
-5.440924	士兵
-5.440924	士林
-5.440924	士民
-5.440924	士氣
-5.171073	壬	-0.2006543
-3.987492	壯	-0.3052669
-5.440924	壯大
-5.440924	壯年
-5.440924	壯志未酬
-5.440924	壯烈
-5.440924	壯碩
-5.440924	壯觀
-5.440924	壯麗
-4.445974	壺	-0.2313712
-3.921908	壽	-0.2801415
-5.440924	壽命
-5.440924	壽險
-3.987492	夏	-0.2424047
-5.440924	夏天
-5.440924	夏日
-5.440924	夔紋
-2.655902	外	-0.5555184
-3.709524	外交	-0.2818252
-5.440924	外交官
-5.440924	外交詞令
-4.214827	外交部	-0.2766311
-5.440924	外人
-5.440924	外來
-5.440924	外傳
-5.440924	外傷
-5.440924	外僑
-5.440924	外公
-5.440924	外出
-5.440924	外力
-5.440924	外加
-5.440924	外務
-5.440924	外勞
-5.440924	外勤
-5.440924	外包
-5.440924	外匯
-5.440924	外匯存底
-5.440924	外匯市場
-5.440924	外向
-5.440924	外商
-5.440924	外國
-4.972836	外國人	-0.1880776
-4.720465	外圍	-0.2036109
-5.440924	外在
-5.440924	外地
-5.440924	外型
-5.440924	外套
-5.440924	外幣
-5.440924	外役監獄
-5.440924	外快
-5.440924	外掛
-5.440924	外放
-5.440924	外星人
-5.440924	外殼
-5.440924	外洩
-5.28259	外流	-0.1899603
-5.440924	外海
-5.440924	外用藥
-5.440924	外界
-5.440924	外省
-5.440924	外祖父
-5.440924	外科
-5.440924	外籍
-5.440924	外籍勞工
-5.440924	外線
-5.440924	外縣
-5.440924	外蒙
-5.440924	外號
-5.440924	外表
-5.440924	外觀
-5.440924	外角
-5.440924	外貌
-5.440924	外資
-5.440924	外賓
-5.440924	外遇
-5.440924	外野
-5.440924	外野手
-5.440924	外銷
-5.440924	外電
-4.158848	外面	-0.3121811
-5.440924	外頭
-2.757677	多	-0.4063872
-5.440924	多久
-5.440924	多事
-5.440924	多元化
-5.440924	多分
-4.354573	多半	-0.2689398
-5.440924	多可
-5.440924	多因
-4.720465	多多	-0.3495146
-5.440924	多多少少
-5.440924	多多益善
-5.440924	多大
-4.445974	多媒體	-0.2432239
-5.440924	多寡
-3.769469	多少	-0.3041703
-5.440924	多年
-5.440924	多得
-5.440924	多情
-5.440924	多慮
-3.892491	多數	-0.1851712
-5.440924	多方
-5.440924	多是
-5.440924	多時
-5.440924	多樣化
-5.28259	多此一舉	-0.1942224
-5.440924	多疑
-5.440924	多管
-5.440924	多管閒事
-5.440924	多花
-5.440924	多角化
-5.440924	多變
-5.440924	多邊貿易
-5.440924	多采多姿
-5.440924	多重
-5.440924	多量
-5.440924	多頭
-5.171073	多餘	-0.1833482
-5.28259	多麼	-0.193145
-3.516766	夜	-0.2825003
-5.440924	夜夜
-5.440924	夜市場
-5.440924	夜戰
-5.440924	夜晚
-5.440924	夜曲
-5.440924	夜班
-5.440924	夜總會
-5.440924	夜色
-5.440924	夜裡
-5.440924	夜遊
-5.440924	夜長夢多
-5.440924	夜間
-4.561885	夠	-0.1908134
-3.814587	夢	-0.3942891
-5.440924	夢境
-5.440924	夢想
-5.440924	夢見
-5.440924	夢鄉
-5.440924	夢魘
-3.987492	夥	-0.2818397
-5.440924	夥伴
-5.440924	夥同
-2.44866	大	-0.3779343
-5.440924	大不相同
-5.440924	大亂
-5.440924	大亨
-5.440924	大令
-5.440924	大便
-5.440924	大修
-5.440924	大內
-5.440924	大公
-5.440924	大公國
-5.440924	大刀闊斧
-5.440924	大力
-5.440924	大功
-5.440924	大功告成
-5.440924	大動干戈
-5.440924	大北
-5.440924	大半
-5.440924	大半天
-5.440924	大半輩子
-5.440924	大卡
-5.440924	大口
-5.440924	大可
-5.440924	大可不必
-5.440924	大同
-5.440924	大吼
-5.440924	大呼
-5.440924	大哥
-5.440924	大哥大
-5.440924	大喊
-5.440924	大喜過望
-5.440924	大國
-5.440924	大地
-5.440924	大地主
-3.709524	大型	-0.320932
-5.440924	大型企業
-5.440924	大型工業區
-5.440924	大堆
-4.109268	大多	-0.2082866
-4.354573	大多數	-0.3715533
-5.440924	大夢
-5.440924	大夥
-5.28259	大大小小	-0.1942224
-5.440924	大夫
-5.440924	大好
-5.440924	大媽
-3.69125	大學	-0.2081814
-5.440924	大學問
-5.440924	大學生
-5.440924	大學聯考
-5.28259	大學部	-0.1997119
-5.440924	大官
-3.493454	大家	-0.2994807
-5.440924	大家長
-5.440924	大寶
-4.972836	大將	-0.2039397
-5.440924	大將軍
-5.440924	大對決
-4.214827	大小	-0.2093874
-5.440924	大尖山
-5.440924	大局
-5.440924	大幅度
-5.440924	大年初一
-5.440924	大幸
-5.440924	大底
-5.440924	大廳
-5.440924	大德
-5.440924	大悲
-5.440924	大戈壁
-5.440924	大戶
-5.440924	大房
-5.440924	大打出手
-5.440924	大批
-5.440924	大把
-5.440924	大抵
-5.440924	大拜拜
-5.440924	大排行
-5.440924	大方
-3.791442	大會	-0.3031631
-5.440924	大本營
-4.064773	大概	-0.2639169
-5.440924	大樓
-5.440924	大殿
-5.440924	大氣
-5.440924	大河
-5.440924	大法官
-5.440924	大法官會議
-5.28259	大海	-0.2021571
-5.440924	大清早
-5.440924	大減價
-5.440924	大溪鎮
-5.440924	大漢
-5.440924	大火
-5.440924	大炮
-5.440924	大牌
-5.440924	大獎
-5.440924	大理石
-5.440924	大環境
-5.440924	大甲
-5.440924	大發
-5.440924	大白
-5.440924	大白天
-5.440924	大盤
-5.440924	大禍
-5.440924	大禮堂
-5.440924	大突破
-5.440924	大筆
-5.440924	大紅大紫
-5.440924	大罵
-5.440924	大老
-5.440924	大老爺
-5.440924	大肚
-5.440924	大肚溪
-5.440924	大股東
-5.440924	大膽
-5.440924	大舅
-5.440924	大舅子
-5.440924	大興土木
-5.440924	大舉
-5.440924	大號
-5.440924	大行其道
-5.440924	大行政區
-5.440924	大袖
-5.440924	大西洋
-5.440924	大規模
-5.440924	大覺
-5.440924	大變
-5.440924	大貨車
-5.440924	大賓
-5.440924	大起大落
-5.440924	大軍
-5.440924	大進
-5.440924	大過
-5.440924	大道
-5.440924	大道理
-5.440924	大部
-4.158848	大部分	-0.2231171
-4.064773	大都	-0.3084657
-5.440924	大都會
-3.624991	大量	-0.2971828
-5.440924	大錢
-4.064773	大門	-0.2689003
-5.440924	大開
-5.440924	大開眼界
-5.440924	大關
-3.2683	大陸	-0.2786233
-5.440924	大陸同胞
-5.440924	大陸國
-5.440924	大陸地區
-5.440924	大陸客
-5.440924	大陸市場
-5.440924	大陸政策
-5.440924	大陸海
-5.440924	大陸貨
-5.440924	大隊
-5.440924	大頭
-5.440924	大風暴
-5.440924	大飯店
-5.440924	大馬士革
-5.440924	大驚失色
-5.440924	大驚小怪
-5.440924	大體
-5.440924	大體上
-5.440924	大鵬
-4.972836	大麻	-0.1882521
-5.440924	大麻煙
-5.440924	大鼓陣
-3.014589	天	-0.3421974
-5.440924	天上
-5.440924	天上人間
-5.440924	天上聖母
-4.109268	天下	-0.4479933
-5.440924	天下沒有白吃的午餐
-5.440924	天下無不是的父母
-5.440924	天下無敵
-5.440924	天下蒼生
-5.440924	天中
-5.440924	天主堂
-5.440924	天主教
-5.440924	天亮
-5.440924	天使
-4.720465	天候	-0.3038603
-5.440924	天價
-5.440924	天全
-5.440924	天分
-5.440924	天台
-5.440924	天后
-5.440924	天國
-5.440924	天地
-5.440924	天堂
-5.440924	天報
-4.972836	天大	-0.1983414
-5.440924	天天
-5.440924	天安門
-5.440924	天宮
-5.440924	天寒地凍
-5.440924	天寶
-5.440924	天將
-5.440924	天府
-5.440924	天意
-5.440924	天才
-5.440924	天數
-4.972836	天文	-0.205466
-5.440924	天時
-5.440924	天晴
-5.440924	天橋
-5.440924	天殺的
-4.445974	天氣	-0.1916919
-5.440924	天河
-5.440924	天津
-5.440924	天然
-5.440924	天然氣
-5.440924	天然災害
-5.440924	天王星
-5.440924	天生
-5.440924	天真
-5.440924	天神
-5.440924	天祥
-5.440924	天祿
-5.440924	天空
-5.440924	天線
-5.440924	天羅地網
-5.440924	天職
-5.440924	天色
-5.440924	天花板
-5.440924	天衣無縫
-5.440924	天譴
-5.440924	天資
-5.440924	天賦
-5.440924	天趣
-5.440924	天道
-5.28259	天都	-0.3072072
-5.440924	天馬
-5.440924	天體
-5.440924	天高
-5.440924	天鵝絨
-3.205494	太	-0.4199386
-5.440924	太上
-5.440924	太保
-3.864941	太太	-0.1737738
-5.440924	太子
-5.440924	太平
-5.440924	太平洋
-5.440924	太極
-5.440924	太空
-4.561885	太過	-0.2034294
-5.440924	太重
-5.440924	太陽
-5.440924	太陽旗
-5.440924	太陽眼鏡
-5.440924	太魯閣國家公園
-3.45028	夫	-0.4012803
-4.561885	夫人	-0.1790287
-5.440924	夫妻
-5.440924	夫妻相
-5.440924	夫妻關係
-5.440924	夫婦
-5.440924	夭折
-4.214827	央	-0.750917
-5.440924	央及
-5.440924	央求
-5.440924	央託
-5.440924	央請
-3.049895	失	-0.4748833
-5.440924	失主
-5.440924	失信
-5.440924	失傳
-5.440924	失利
-5.440924	失去
-5.440924	失和
-5.440924	失地
-5.440924	失察
-5.440924	失常
-5.440924	失意
-5.440924	失態
-5.440924	失所
-5.28259	失掉	-0.2002994
-5.440924	失控
-5.440924	失敗
-5.440924	失明
-5.440924	失望
-5.440924	失業
-5.440924	失業人口
-5.440924	失業保險
-5.440924	失業率
-5.440924	失火
-5.440924	失當
-4.720465	失真	-0.268921
-5.440924	失禮
-5.440924	失竊
-5.440924	失算
-5.440924	失職
-5.440924	失落
-5.440924	失血
-5.440924	失衡
-5.440924	失誤
-5.440924	失調
-5.440924	失足
-5.440924	失蹤
-5.440924	失陷
-5.171073	夷	-0.204156
-4.279103	夾	-0.2029718
-5.440924	夾克
-5.440924	夾帶
-5.440924	夾攻
-3.640632	奇	-0.2999189
-4.561885	奇怪	-0.2388895
-5.440924	奇招
-5.440924	奇景
-5.440924	奇特
-5.440924	奇異
-5.440924	奇觀
-5.440924	奇蹟
-5.440924	奇遇
-5.440924	奇風異俗
-4.720465	奈	-0.3571741
-3.864941	奉	-0.3083637
-5.440924	奉勸
-5.440924	奉命
-5.440924	奉安
-5.440924	奉承
-5.440924	奉獻
-5.440924	奉祀
-5.440924	奉調
-5.440924	奉送
-5.440924	奉養
-5.28259	奎	-0.2005327
-4.214827	奏	-0.2181082
-5.440924	奏效
-5.440924	奏鳴曲
-3.921908	契	-0.6174264
-5.440924	契合
-5.440924	契機
-5.440924	契約
-3.953463	奔	-0.3432367
-5.440924	奔喪
-5.440924	奔波
-5.440924	奔走
-5.440924	奔跑
-5.440924	奔馳
-5.440924	奔騰
-4.720465	奕	-0.1899087
-3.69125	套	-0.4225457
-5.440924	套利
-5.440924	套房
-5.440924	套牢
-5.28259	套用	-0.2124342
-5.440924	套裝
-5.440924	套裝軟體
-5.440924	奚落
-5.440924	奠定
-5.440924	奢望
-5.440924	奢靡
-4.109268	奧	-0.2792392
-3.953463	奪	-0.2633311
-5.440924	奪取
-5.440924	奪權
-5.440924	奮力
-5.440924	奮勇
-5.440924	奮起
-5.440924	奮鬥
-3.041798	女	-0.330117
-5.440924	女丈夫
-5.440924	女中
-5.440924	女主角
-5.440924	女事
-5.440924	女人
-5.440924	女傭
-5.440924	女優
-5.440924	女先
-5.440924	女兒
-5.440924	女兒家
-5.440924	女兵
-5.440924	女友
-5.440924	女口
-5.440924	女士
-5.440924	女婿
-5.440924	女子
-5.440924	女孩子
-5.440924	女將
-5.440924	女性
-5.440924	女星
-5.440924	女權
-5.440924	女流
-4.109268	女生	-0.2949607
-5.440924	女童
-5.440924	女警
-5.440924	女鞋
-4.445974	奶	-0.1999285
-5.440924	奶粉
-5.440924	奶頭
-3.111246	她	-0.2606955
-3.892491	她們	-0.1895198
-3.070825	好	-0.4057212
-5.440924	好一陣
-5.440924	好不好
-5.440924	好不容易
-5.440924	好久
-5.28259	好事	-0.1989993
-5.28259	好些	-0.193145
-5.440924	好人
-5.440924	好似
-4.109268	好像	-0.2524969
-5.440924	好友
-5.440924	好吃
-5.440924	好吃懶做
-5.440924	好在
-5.171073	好壞	-0.2083877
-5.171073	好多	-0.2081762
-5.440924	好奇
-4.561885	好好	-0.1962002
-5.440924	好心
-5.440924	好惹
-5.440924	好意
-5.440924	好感
-5.440924	好戲
-5.440924	好手
-5.440924	好日子
-5.440924	好是
-5.440924	好書
-5.440924	好歹
-5.440924	好消息
-5.440924	好漢
-5.440924	好玩
-5.440924	好生
-4.720465	好看	-0.4238206
-5.440924	好笑
-5.440924	好聽
-5.440924	好萊塢
-4.720465	好處	-0.2569072
-5.440924	好言相勸
-5.440924	好評
-5.440924	好轉
-3.092815	如	-0.3247609
-5.440924	如一
-5.440924	如今
-3.392633	如何	-0.2786482
-5.440924	如何是好
-5.440924	如同
-5.440924	如常
-5.440924	如意
-5.440924	如數
-5.440924	如是
-5.440924	如期
-3.609894	如果	-0.3238463
-3.581188	如此	-0.3669361
-5.440924	如法泡製
-5.440924	如法炮製
-5.440924	如泣如訴
-5.440924	如火如荼
-5.440924	如臨大敵
-5.440924	如虎添翼
-5.440924	如許
-5.440924	如釋重負
-5.440924	如願
-5.171073	妃	-0.1833482
-4.561885	妄	-0.2479139
-5.28259	妒	-0.200303
-5.440924	妓女
-4.158848	妙	-0.3436177
-5.440924	妙法
-5.440924	妙齡女郎
-5.440924	妝點
-3.624991	妥	-0.516301
-5.440924	妥協
-5.440924	妥善
-5.440924	妥當
-5.440924	妨害
-5.440924	妨害自由
-5.440924	妨害風化
-5.440924	妨礙
-5.171073	妮	-0.1832979
-3.814587	妳	-0.2163541
-4.354573	妹	-0.178265
-4.158848	妺	-0.3014464
-3.609894	妻	-0.3649744
-5.440924	妻子
-5.440924	妻室
-5.440924	妾身未明
-5.171073	姆	-0.1975628
-4.445974	姊	-0.2048378
-5.440924	姊夫
-5.440924	姊妹
-5.440924	姊妹市
-5.440924	姊姊
-3.839034	始	-0.3257499
-5.440924	始創
-5.440924	始料不及
-5.440924	始料未及
-5.440924	始末
-5.440924	始祖
-4.024416	始終	-0.2339011
-5.28259	姍	-0.2001817
-4.354573	姐	-0.2063527
-5.440924	姐夫
-5.440924	姐妹
-5.440924	姐姐
-4.720465	姑	-0.2419783
-5.28259	姑且	-0.1982856
-5.440924	姑娘
-5.440924	姑息
-3.420501	姓	-0.3757092
-5.440924	姓名
-3.115978	委	-0.6134638
-5.440924	委任狀
-5.440924	委員
-5.440924	委員會
-5.440924	委屈
-5.440924	委曲求全
-5.440924	委託
-5.28259	姚	-0.2120839
-4.445974	姜	-0.2062191
-4.158848	姦	-0.2398632
-5.440924	姦夫
-5.440924	姦情
-5.440924	姦淫
-5.440924	姪子
-4.064773	姿	-0.3490683
-5.440924	姿勢
-5.440924	姿態
-3.528908	威	-0.5117193
-5.440924	威信
-5.440924	威力
-5.440924	威尼斯
-5.440924	威望
-5.440924	威權
-5.440924	威武
-5.440924	威脅
-5.440924	威風八面
-5.440924	娃娃
-5.440924	娓娓道來
-5.440924	娘家
-4.972836	娛	-0.1817328
-4.279103	娛樂	-0.2398871
-5.440924	娛樂場所
-4.561885	娜	-0.2762749
-4.720465	娶	-0.2544809
-4.354573	娼	-0.1838343
-5.440924	娼妓
-5.440924	娼婦
-5.171073	婀	-0.4345206
-5.28259	婁	-0.2002738
-4.158848	婆	-0.2957468
-5.440924	婆婆
-5.440924	婆婆媽媽
-5.440924	婆家
-4.279103	婉	-0.2723515
-5.440924	婉容
-5.440924	婉拒
-5.440924	婉言
-5.440924	婉謝
-3.640632	婚	-0.4267882
-5.440924	婚事
-5.440924	婚姻
-5.440924	婚禮
-5.440924	婚變
-3.471331	婦	-0.4414859
-5.440924	婦人
-5.440924	婦女
-5.440924	婦女會
-5.440924	婦孺
-5.440924	婦產科
-5.440924	婦科
-5.171073	婷	-0.2002682
-5.171073	婿	-0.188678
-4.279103	媒	-0.2462722
-5.440924	媒人
-5.440924	媒介
-3.921908	媒體	-0.2458118
-4.972836	媚	-0.2011851
-5.28259	媛	-0.1997995
-5.28259	媲	-0.5310114
-5.440924	媲美
-4.445974	媳	-0.3352796
-5.440924	媳婦
-3.953463	媽	-0.4309662
-5.440924	媽媽
-5.440924	媽媽教室
-5.440924	媽祖
-4.279103	嫁	-0.2159458
-5.440924	嫁禍
-3.229538	嫌	-0.3293816
-5.440924	嫌犯
-5.440924	嫌疑
-5.440924	嫌隙
-5.440924	嫖客
-5.28259	嫚	-0.2005399
-4.720465	嫩	-0.2772545
-5.440924	嫩江省
-5.440924	嫩葉
-5.171073	嫻	-0.1941289
-5.440924	嫻雅
-5.440924	嬉笑
-5.440924	嬉鬧
-4.214827	嬌	-0.2641818
-5.440924	嬌妻
-5.440924	嬌嫩
-4.214827	嬰	-0.2537205
-5.440924	嬰兒
-5.440924	嬰兒車
-5.440924	嬰孩
-5.28259	孀	-0.2114913
-2.985448	子	-0.3630338
-5.440924	子來
-5.440924	子女
-5.440924	子孫
-5.440924	子弟
-5.440924	子弟兵
-5.440924	子彈
-5.440924	子民
-5.440924	子都
-4.214827	孔	-0.2446965
-5.440924	孔子
-5.440924	孔廟
-5.440924	孔德
-5.440924	孔武有力
-5.440924	孔雀
-4.445974	孕	-0.2049399
-5.440924	孕婦
-3.567516	字	-0.4672994
-5.440924	字元
-5.440924	字幕
-5.440924	字樣
-5.440924	字正腔圓
-5.440924	字母
-5.440924	字畫
-5.440924	字眼
-5.440924	字跡
-5.28259	字音	-0.2003285
-5.440924	字體
-3.411011	存	-0.3347057
-5.440924	存亡
-3.69125	存在	-0.4735757
-5.440924	存廢
-5.440924	存心
-5.440924	存摺
-5.440924	存放
-5.440924	存查
-5.440924	存款
-5.440924	存疑
-5.440924	存量
-5.440924	孚眾望
-4.158848	孝	-0.2968488
-5.440924	孝子
-4.561885	孟	-0.4111767
-3.624991	季	-0.3323087
-5.440924	季節
-5.440924	季節性
-5.440924	季軍
-5.440924	季風
-4.109268	孤	-0.269048
-5.440924	孤兒院
-5.440924	孤島
-5.440924	孤挺花
-5.440924	孤注
-5.440924	孤注一擲
-5.440924	孤獨
-5.440924	孤立
-5.440924	孤立主義
-5.440924	孤行
-5.440924	孤軍
-3.728601	孩	-0.613752
-5.440924	孩兒們
-5.440924	孩子
-5.440924	孩子氣
-5.440924	孩童
-3.673713	孫	-0.3231196
-5.440924	孫中山
-5.440924	孫女
-5.440924	孫子
-5.440924	孫子兵法
-5.440924	孫悟空
-5.171073	孰	-0.4549954
-5.440924	孰料
-5.440924	孳息
-5.28259	孵	-0.2006493
-3.21735	學	-0.4001325
-5.28259	學人	-0.1899603
-5.171073	學位	-0.1899294
-5.440924	學區
-5.440924	學友
-5.440924	學員
-5.28259	學問	-0.1892192
-5.440924	學子
-5.440924	學府
-5.440924	學成
-4.972836	學會	-0.2384129
-5.28259	學期	-0.2004561
-3.609894	學校	-0.2328097
-5.440924	學業
-5.440924	學歷
-5.440924	學派
-5.440924	學潮
-3.34175	學生	-0.2722706
-5.440924	學界
-5.440924	學科
-5.440924	學童
-3.921908	學習	-0.2851446
-5.440924	學者
-4.109268	學術	-0.2738765
-5.440924	學術研究
-5.440924	學術自由
-5.440924	學費
-5.440924	學運
-4.445974	學院	-0.1854792
-3.383728	它	-0.3908194
-4.214827	它們	-0.2858092
-4.064773	宅	-0.3374242
-4.720465	宇	-0.2075334
-3.516766	守	-0.2786739
-5.440924	守候
-5.440924	守備
-5.440924	守分
-5.440924	守則
-5.440924	守勢
-5.440924	守望相助
-5.440924	守株待兔
-5.440924	守法
-5.440924	守衛
-5.440924	守護
-2.866066	安	-0.5611838
-5.440924	安人
-5.440924	安內
-5.440924	安全
-5.440924	安全感
-5.440924	安全距離
-5.440924	安分
-5.440924	安危
-5.440924	安和
-5.440924	安定
-5.440924	安寧
-5.440924	安康
-5.440924	安心
-5.440924	安慰
-5.440924	安打
-5.440924	安排
-5.440924	安插
-5.440924	安撫
-5.440924	安曼
-5.440924	安樂
-5.440924	安泰
-5.28259	安理會	-0.193145
-5.440924	安眠藥
-5.440924	安穩
-5.440924	安置
-5.440924	安葬
-3.892491	安裝	-0.326996
-5.440924	安逸
-5.440924	安靈
-5.440924	安靜
-5.440924	安非他命
-5.440924	安頓
-5.440924	安養
-4.109268	宋	-0.3675564
-5.440924	宋詞
-3.482252	完	-0.3727532
-4.720465	完了	-0.1876584
-5.440924	完事
-5.440924	完備
-3.595304	完全	-0.2764297
-5.440924	完善
-5.440924	完好
-5.440924	完完全全
-5.440924	完工
-3.235763	完成	-0.4387176
-4.354573	完整	-0.380041
-4.214827	完畢	-0.2456852
-5.440924	完美
-5.440924	完蛋
-3.921908	宏	-0.1659387
-5.440924	宏亮
-5.440924	宏偉壯觀
-5.440924	宏揚
-3.69125	宗	-0.2518357
-5.440924	宗人
-5.440924	宗師
-5.440924	宗教
-5.440924	宗旨
-3.171754	官	-0.4772752
-5.440924	官人
-5.440924	官僚
-5.440924	官兵
-5.440924	官司
-5.440924	官名
-5.440924	官吏
-5.440924	官員
-5.440924	官商勾結
-4.279103	官方	-0.1965864
-5.440924	官架子
-5.440924	官校
-5.440924	官樣文章
-5.440924	官股
-5.440924	官能
-5.440924	官銜
-3.120763	定	-0.409251
-5.440924	定下
-5.440924	定位
-5.440924	定價
-5.440924	定力
-5.440924	定向
-5.440924	定在
-5.440924	定奪
-5.171073	定存	-0.2019149
-5.440924	定局
-5.440924	定居
-5.440924	定性
-5.440924	定時
-5.440924	定時炸彈
-5.440924	定期
-5.440924	定本
-5.440924	定案
-5.440924	定然
-4.972836	定義	-0.3495114
-5.440924	定規
-5.440924	定論
-5.440924	定讞
-5.440924	定點
-5.440924	宛如
-5.440924	宛若
-3.440125	宜	-0.5493644
-5.440924	宜人
-5.440924	宜蘭縣
-3.310864	客	-0.464407
-5.440924	客人
-5.440924	客家
-5.440924	客家人
-5.28259	客廳	-0.200303
-5.440924	客戶
-5.440924	客籍
-5.440924	客觀
-5.440924	客運
-3.248487	宣	-0.746852
-5.440924	宣傳
-5.440924	宣傳車
-5.440924	宣判
-5.440924	宣告
-5.440924	宣和
-5.440924	宣導
-5.440924	宣布
-5.440924	宣戰
-5.440924	宣洩
-5.440924	宣示
-5.440924	宣稱
-5.440924	宣言
-5.440924	宣講
-5.440924	宣讀
-3.516766	室	-0.4326338
-5.440924	室人
-5.440924	室內
-5.440924	室內樂
-5.440924	室友
-5.440924	室外
-5.28259	宥	-0.2120146
-3.814587	宮	-0.2429408
-5.440924	宮女
-5.440924	宮殿
-4.158848	宰	-0.2948009
-5.440924	宰制
-5.440924	宰割
-5.440924	宰殺
-3.516766	害	-0.487055
-5.440924	害人害己
-5.440924	害心
-5.440924	害怕
-5.440924	害民
-5.440924	害羞
-5.440924	害群之馬
-4.158848	宴	-0.3191305
-5.440924	宴客
-5.440924	宴會
-5.440924	宴請
-4.561885	宵	-0.6099702
-5.440924	宵小
-2.779047	家	-0.4709691
-5.440924	家世
-5.440924	家主
-5.440924	家人
-5.440924	家來
-5.440924	家公
-5.440924	家具
-5.440924	家務
-5.440924	家去
-5.440924	家商
-5.440924	家喻戶曉
-5.440924	家園
-5.440924	家堂
-5.440924	家學
-5.440924	家客
-5.440924	家家戶戶
-5.440924	家居
-5.440924	家屬
-5.440924	家庭
-5.440924	家庭主婦
-5.440924	家庭教育
-5.440924	家庭訪問
-5.440924	家慶
-5.440924	家政
-5.440924	家數
-5.440924	家族
-5.440924	家父
-5.440924	家產
-5.440924	家用
-5.440924	家用電腦
-5.440924	家畜
-5.440924	家當
-5.440924	家的
-5.440924	家眷
-5.440924	家禽
-5.440924	家裡
-5.440924	家計
-5.440924	家鄉
-5.440924	家長
-5.440924	家門
-4.561885	家電	-0.2034572
-3.504954	容	-0.4239326
-5.440924	容不下
-5.440924	容器
-5.440924	容忍
-3.748554	容易	-0.4050103
-5.440924	容留
-5.440924	容納
-4.561885	容許	-0.1911384
-5.440924	容量
-4.064773	宿	-0.4098416
-5.440924	宿命
-5.440924	宿舍
-4.561885	寂	-0.3105107
-4.720465	寂寞	-0.1956075
-5.440924	寂寥
-3.673713	寄	-0.227208
-5.440924	寄予
-5.440924	寄人籬下
-5.440924	寄存
-5.440924	寄宿
-5.440924	寄放
-5.440924	寄望
-5.440924	寄生蟲
-5.440924	寄發
-5.440924	寄託
-3.401725	密	-0.4601393
-3.892491	密切	-0.5016404
-5.440924	密地
-5.440924	密報
-5.440924	密室
-5.28259	密密	-0.2006493
-5.440924	密實
-5.440924	密封
-5.440924	密度
-5.440924	密探
-5.440924	密爾
-5.440924	密碼
-5.440924	密約
-5.440924	密訪
-5.440924	密閉
-5.440924	密集
-5.28259	寇	-0.2128206
-3.595304	富	-0.3041488
-5.440924	富可敵國
-5.440924	富商
-5.440924	富家
-5.440924	富強康樂
-5.440924	富有
-5.440924	富源
-5.440924	富翁
-5.440924	富裕
-5.440924	富豪
-5.440924	富貴
-5.440924	富麗堂皇
-4.024416	寒	-0.2480176
-5.440924	寒冬
-5.440924	寒冷
-5.440924	寒微
-5.440924	寒心
-5.440924	寒暄
-5.440924	寒流
-5.440924	寒風
-4.972836	寓	-0.2211224
-5.440924	寓所
-4.064773	察	-0.4552795
-5.440924	察覺
-5.440924	寡女
-5.440924	寡將
-5.440924	寡母
-5.440924	寢室
-5.440924	寥寥
-2.999774	實	-0.5407972
-5.440924	實力
-5.440924	實務
-3.769469	實在	-0.4286727
-5.440924	實地
-5.440924	實情
-5.440924	實惠
-5.440924	實戶
-5.440924	實收
-5.440924	實施
-5.440924	實業
-5.440924	實況
-4.214827	實現	-0.569214
-5.440924	實用
-5.440924	實至名歸
-5.440924	實行
-5.440924	實質
-5.440924	實踐
-3.748554	實際	-0.3331797
-4.972836	實驗	-0.1983263
-5.440924	實體
-3.987492	寧	-0.3761016
-4.720465	寧可	-0.1993364
-5.440924	寧靜
-5.440924	寧願
-4.972836	寨	-0.1993118
-5.440924	寨子
-3.375001	審	-0.5873392
-5.440924	審判
-5.440924	審判長
-5.440924	審慎
-5.440924	審查
-5.440924	審核
-5.440924	審理
-5.440924	審稿
-5.440924	審美
-5.440924	審視
-5.440924	審計
-5.440924	審議
-3.411011	寫	-0.3541346
-5.440924	寫作
-5.440924	寫信
-5.440924	寫字
-5.440924	寫實
-5.440924	寫意
-5.28259	寫法	-0.2021571
-5.440924	寫生
-5.440924	寫稿
-3.769469	寬	-0.4023951
-5.440924	寬廣
-5.440924	寬心
-5.440924	寬恕
-5.440924	寬敞
-5.440924	寬闊
-5.440924	寬鬆
-4.109268	寮	-0.2511897
-5.28259	寰	-0.2104787
-4.720465	寵	-0.2472095
-5.440924	寵兒
-5.440924	寵愛
-5.440924	寵物
-3.420501	寶	-0.2648795
-5.440924	寶坊
-5.440924	寶寶
-5.440924	寶山
-5.440924	寶島
-5.440924	寶座
-5.440924	寶物
-5.440924	寶玉
-5.440924	寶相
-5.440924	寶石
-5.440924	寶藍色
-5.440924	寶貝
-5.440924	寶貴
-4.561885	寸	-0.3039671
-5.440924	寸步難行
-4.064773	寺	-0.2331883
-5.440924	寺廟
-3.528908	封	-0.3835791
-5.440924	封住
-5.440924	封包
-5.440924	封殺
-5.440924	封港
-5.440924	封鎖
-5.440924	封鎖現場
-5.440924	封閉
-5.440924	封關
-5.440924	封面
-3.624991	射	-0.2967629
-5.440924	射手
-5.440924	射擊
-5.440924	射殺
-5.440924	射箭
-5.440924	射頻
-2.570787	將	-0.2332679
-5.440924	將事
-3.987492	將來	-0.2499669
-5.440924	將出
-5.440924	將命
-5.440924	將官
-5.440924	將就
-5.440924	將帶
-5.440924	將晚
-5.440924	將次
-5.440924	將為
-5.440924	將無
-5.440924	將艾
-5.440924	將要
-5.440924	將軍
-4.720465	將近	-0.1921214
-5.440924	將領
-2.999774	專	-0.5784024
-5.440924	專人
-5.440924	專任
-5.440924	專利
-5.440924	專制
-5.440924	專司
-5.440924	專員
-5.440924	專家
-5.440924	專心
-5.440924	專戶
-5.440924	專才
-5.440924	專校
-5.440924	專案
-5.440924	專案小組
-5.440924	專業
-5.440924	專業人員
-5.440924	專業區
-5.440924	專機
-5.440924	專橫
-5.440924	專櫃
-5.440924	專欄
-5.440924	專款
-5.440924	專注
-5.440924	專用
-5.440924	專科
-5.440924	專科學校
-5.440924	專程
-5.440924	專精
-5.440924	專線
-5.440924	專職
-5.440924	專訪
-5.440924	專論
-5.440924	專責
-5.440924	專賣店
-5.440924	專輯
-5.440924	專長
-4.972836	專門	-0.1981584
-5.171073	專題	-0.342158
-3.493454	尊	-0.7300589
-5.440924	尊嚴
-5.440924	尊崇
-5.440924	尊師重道
-5.440924	尊敬
-5.440924	尊稱
-5.440924	尊重
-3.567516	尋	-0.5553119
-5.440924	尋常
-5.440924	尋找
-5.440924	尋求
-5.440924	尋獲
-5.440924	尋繹
-5.440924	尋覓
-2.701061	對	-0.2892563
-5.28259	對上	-0.2003577
-5.440924	對不是
-5.28259	對不起	-0.2127076
-5.171073	對付	-0.2002036
-5.440924	對分
-5.440924	對子
-5.440924	對岸
-5.440924	對峙
-5.440924	對待
-5.440924	對得起
-5.171073	對應	-0.2685773
-5.440924	對手
-5.440924	對抗
-3.709524	對方	-0.2438946
-3.554262	對於	-0.2659154
-5.440924	對比
-5.440924	對決
-5.440924	對流
-5.28259	對準	-0.2005764
-5.440924	對照
-5.440924	對症下藥
-5.440924	對立
-4.972836	對等	-0.25444
-5.440924	對策
-4.279103	對話	-0.5224099
-5.171073	對談	-0.199013
-5.440924	對象
-5.440924	對質
-5.28259	對面	-0.200591
-3.554262	導	-0.3250747
-5.440924	導向
-5.440924	導師
-5.440924	導引
-5.440924	導正
-5.440924	導演
-4.024416	導致	-0.1783738
-5.171073	導航	-0.2126493
-5.440924	導遊
-2.822797	小	-0.4115753
-5.440924	小丑
-5.440924	小事
-5.440924	小人
-5.440924	小伙子
-5.440924	小便
-5.440924	小倆口
-5.440924	小偷
-5.440924	小公
-5.440924	小冊子
-5.440924	小利
-5.440924	小劇場
-5.440924	小動作
-5.440924	小叔
-5.440924	小可
-5.440924	小吃
-5.440924	小吏
-5.440924	小型
-5.440924	小型股
-5.440924	小夜曲
-5.440924	小女
-5.440924	小妹
-5.440924	小姐
-5.440924	小姑
-5.440924	小孩
-4.354573	小學	-0.3700585
-5.440924	小學生
-5.440924	小官
-5.440924	小客車
-5.440924	小將
-5.171073	小小	-0.2550968
-5.440924	小巫見大巫
-5.440924	小市民
-5.440924	小平頭
-5.440924	小康
-5.440924	小弟
-4.064773	小心	-0.2275546
-5.440924	小心謹慎
-5.440924	小意思
-5.28259	小我	-0.1899603
-5.440924	小手
-5.440924	小抄
-3.814587	小時	-0.4039466
-5.440924	小時候
-5.440924	小曲
-5.440924	小月
-5.440924	小校
-5.440924	小毛頭
-5.440924	小球
-5.440924	小生
-4.158848	小的	-0.3262423
-5.440924	小看
-5.440924	小站
-5.440924	小童
-5.440924	小紅
-5.440924	小組
-5.440924	小耳朵
-5.440924	小腿
-5.440924	小至
-5.440924	小菜
-5.440924	小說
-5.440924	小說家
-5.440924	小貨車
-5.440924	小販
-5.440924	小過年
-5.440924	小量
-5.440924	小鈔
-5.440924	小隊
-5.440924	小題大作
-5.440924	小額
-5.440924	小鬼頭
-3.430202	少	-0.4432669
-5.28259	少不了	-0.1942224
-5.440924	少女
-5.440924	少年
-5.440924	少年法庭
-5.440924	少年犯罪
-5.440924	少康
-4.064773	少數	-0.1803348
-5.440924	少時
-4.279103	少有	-0.2619362
-5.440924	少見
-4.972836	少量	-0.1999208
-4.024416	尖	-0.3443313
-5.440924	尖兵
-5.440924	尖刀
-5.440924	尖叫
-5.440924	尖峰
-5.440924	尖峰時間
-5.171073	尖銳	-0.2001488
-3.375001	尚	-0.408369
-5.440924	尚且
-5.440924	尚佳
-5.440924	尚可
-5.440924	尚志
-3.392633	尚未	-0.2507241
-3.987492	尤	-0.4844397
-5.171073	尤其	-0.5253709
-2.794657	就	-0.3099776
-5.440924	就中
-5.440924	就任
-5.440924	就使
-5.440924	就和
-5.440924	就地
-5.171073	就學	-0.1977235
-5.440924	就得
-3.460678	就是	-0.2633051
-5.440924	就業
-5.440924	就此
-5.440924	就此打住
-4.972836	就算	-0.1933186
-5.440924	就範
-5.440924	就緒
-5.440924	就職
-4.445974	就要	-0.2717795
-5.440924	就診
-4.561885	就讀	-0.1852749
-5.440924	就近
-5.440924	就醫
-4.720465	尷尬	-0.1892883
-5.28259	尹	-0.2002775
-4.214827	尺	-0.3576904
-5.440924	尺五
-5.440924	尺寸
-5.440924	尺碼
-3.921908	尼	-0.3333729
-5.440924	尼泊爾
-3.709524	尾	-0.2665206
-5.440924	尾款
-5.440924	尾隨
-4.561885	尿	-0.2094271
-5.440924	尿液
-3.083885	局	-0.4073694
-5.440924	局勢
-5.440924	局外
-5.440924	局部
-5.440924	局面
-4.972836	屁	-0.1955991
-3.21735	居	-0.5018924
-5.440924	居中
-5.440924	居住
-5.440924	居住環境
-5.440924	居功
-5.440924	居士
-5.440924	居多
-5.440924	居家
-5.440924	居心
-5.440924	居心叵測
-5.440924	居所
-5.440924	居正
-5.440924	居民
-5.28259	居然	-0.2005946
-5.440924	居留
-5.440924	居第
-5.440924	居處
-5.440924	居間
-5.440924	居首
-5.440924	居高不下
-5.440924	居高臨下
-3.791442	屆	-0.4906388
-5.440924	屆時
-5.440924	屆滿
-5.440924	屈辱
-3.581188	屋	-0.3243775
-5.440924	屋主
-5.440924	屋子
-5.440924	屋頂
-3.921908	屍	-0.333209
-5.440924	屍骨
-5.440924	屍骨無存
-5.440924	屍體
-5.440924	屎
-3.892491	屏	-0.57277
-5.440924	屏東市
-5.440924	屏東縣
-5.440924	屏障
-5.440924	屏風
-4.720465	屑	-0.1943302
-3.289061	展	-0.5459806
-5.440924	展出
-5.440924	展售
-5.440924	展延
-5.440924	展望
-5.440924	展現
-4.445974	展示	-0.1850167
-5.440924	展翅
-5.440924	展覽
-5.440924	展覽會
-3.516766	展開	-0.2351613
-5.440924	展露
-5.440924	屠宰場
-5.440924	屠宰稅
-5.440924	屠殺
-3.864941	屢	-0.2956702
-5.440924	屢屢
-5.440924	屢次
-5.440924	屢見不鮮
-3.493454	層	-0.372723
-5.440924	層出不窮
-5.440924	層層
-5.440924	層峰
-5.440924	層樓
-4.561885	層次	-0.2331531
-5.440924	層級
-5.440924	層面
-5.171073	履	-0.4761266
-3.358057	屬	-0.2193141
-5.440924	屬下
-5.440924	屬員
-5.440924	屬地
-5.440924	屬實
-5.440924	屬性
-5.440924	屬意
-3.953463	屬於	-0.1870047
-4.972836	屯	-0.4059705
-3.083885	山	-0.2749321
-5.440924	山人
-5.440924	山勢
-5.440924	山區
-5.440924	山口
